{"window_size": 30, "n_features": 4, "n_samples_fit": 256, "forest": [{"n_nodes": 91, "children_left": [1, 2, 3, 4, 5, -1, -1, 8, 9, 10, 11, -1, -1, 14, -1, -1, -1, 18, 19, -1, -1, 22, -1, -1, 25, 26, -1, 28, 29, -1, -1, -1, 33, 34, 35, 36, -1, -1, 39, -1, -1, 42, 43, -1, -1, 46, -1, -1, 49, -1, -1, 52, -1, -1, 55, 56, -1, 58, 59, 60, 61, -1, -1, 64, 65, -1, -1, 68, -1, -1, 71, -1, -1, -1, 75, 76, -1, 78, 79, -1, -1, 82, 83, 84, -1, -1, 87, -1, -1, -1, -1], "children_right": [54, 51, 24, 7, 6, -1, -1, 17, 16, 13, 12, -1, -1, 15, -1, -1, -1, 21, 20, -1, -1, 23, -1, -1, 32, 27, -1, 31, 30, -1, -1, -1, 48, 41, 38, 37, -1, -1, 40, -1, -1, 45, 44, -1, -1, 47, -1, -1, 50, -1, -1, 53, -1, -1, 74, 57, -1, 73, 70, 63, 62, -1, -1, 67, 66, -1, -1, 69, -1, -1, 72, -1, -1, -1, 90, 77, -1, 81, 80, -1, -1, 89, 86, 85, -1, -1, 88, -1, -1, -1, -1], "feature": [65, 9, 1, 3, 93, -2, -2, 49, 83, 117, 18, -2, -2, 16, -2, -2, -2, 81, 109, -2, -2, 100, -2, -2, 110, 28, -2, 70, 113, -2, -2, -2, 66, 54, 114, 85, -2, -2, 98, -2, -2, 65, 46, -2, -2, 19, -2, -2, 74, -2, -2, 77, -2, -2, 69, 80, -2, 116, 17, 0, 84, -2, -2, 13, 53, -2, -2, 14, -2, -2, 16, -2, -2, -2, 8, 66, -2, 22, 55, -2, -2, 99, 81, 80, -2, -2, 96, -2, -2, -2, -2], "threshold": [89.24757678119819, 90.61175277671393, 84.31492219181494, -0.4611223295615624, 85.39399359533283, -2.0, -2.0, 85.90485598468447, 0.4908219396559624, 84.75254621578033, -17.644113692754928, -2.0, -2.0, 2110.5317244155012, -2.0, -2.0, -2.0, 86.20302437069036, 86.5442740803325, -2.0, -2.0, 2269.993227854368, -2.0, -2.0, -512.214058520372, 1521.4553295972082, -2.0, 107.54753949425535, 84.40623761173629, -2.0, -2.0, -2.0, 492.9711609710805, -74.92187226699753, 160.80718203345646, 85.00069257337633, -2.0, -2.0, 121.25873533089586, -2.0, -2.0, 87.51487109275295, -1064.9652823773051, -2.0, -2.0, -1.7978959352699555, -2.0, -2.0, -613.3356423817276, -2.0, -2.0, 86.55140713022622, -2.0, -2.0, 91.98610498569259, 1309.9033001954217, -2.0, 3133.195404347589, 93.66490719638063, 885.7403665295524, 2248.004026812503, -2.0, -2.0, 90.05158342283758, 89.09975701621723, -2.0, -2.0, 67.74017133737922, -2.0, -2.0, 2389.8940083048747, -2.0, -2.0, -2.0, 2886.6608794777007, -342.4417822805428, -2.0, -416.8946833428436, 1.5431250592428842, -2.0, -2.0, 0.5208276838626842, 92.09393321168326, 1421.8575946473784, -2.0, -2.0, 4132.232677224666, -2.0, -2.0, -2.0, -2.0], "n_node_samples": [256, 231, 229, 27, 2, 1, 1, 25, 21, 20, 4, 3, 1, 16, 7, 9, 1, 4, 2, 1, 1, 2, 1, 1, 202, 4, 1, 3, 2, 1, 1, 1, 198, 196, 17, 14, 8, 6, 3, 1, 2, 179, 154, 1, 153, 25, 1, 24, 2, 1, 1, 2, 1, 1, 25, 11, 1, 10, 9, 7, 2, 1, 1, 5, 3, 1, 2, 2, 1, 1, 2, 1, 1, 1, 14, 13, 1, 12, 2, 1, 1, 10, 9, 3, 2, 1, 6, 5, 1, 1, 1]}, {"n_nodes": 75, "children_left": [1, 2, 3, 4, -1, -1, 7, 8, 9, -1, -1, -1, 13, 14, 15, -1, 17, -1, -1, 20, 21, -1, -1, 24, -1, -1, 27, 28, -1, 30, -1, -1, -1, 34, 35, -1, -1, 38, -1, -1, 41, 42, 43, 44, 45, 46, 47, -1, -1, -1, -1, -1, 53, 54, 55, 56, -1, -1, -1, 60, 61, -1, -1, -1, 65, 66, -1, -1, -1, 70, -1, -1, 73, -1, -1], "children_right": [40, 33, 6, 5, -1, -1, 12, 11, 10, -1, -1, -1, 26, 19, 16, -1, 18, -1, -1, 23, 22, -1, -1, 25, -1, -1, 32, 29, -1, 31, -1, -1, -1, 37, 36, -1, -1, 39, -1, -1, 72, 69, 52, 51, 50, 49, 48, -1, -1, -1, -1, -1, 64, 59, 58, 57, -1, -1, -1, 63, 62, -1, -1, -1, 68, 67, -1, -1, -1, 71, -1, -1, 74, -1, -1], "feature": [90, 95, 14, 48, -2, -2, 101, 46, 102, -2, -2, -2, 85, 115, 35, -2, 31, -2, -2, 0, 19, -2, -2, 31, -2, -2, 85, 59, -2, 77, -2, -2, -2, 37, 34, -2, -2, 100, -2, -2, 70, 109, 89, 91, 54, 44, 28, -2, -2, -2, -2, -2, 93, 40, 94, 28, -2, -2, -2, 54, 83, -2, -2, -2, 32, 88, -2, -2, -2, 97, -2, -2, 54, -2, -2], "threshold": [122.4909955242141, 0.1279279599561951, -399.1000142256264, 2609.810826717322, -2.0, -2.0, 83.73425594285794, 1369.9675826849266, -0.22535227389323964, -2.0, -2.0, -2.0, 85.01253092522386, -0.04653270218825556, -0.7935387924283458, -2.0, -0.7244787699191266, -2.0, -2.0, 1952.2913766476752, -0.28050546314590863, -2.0, -2.0, -0.4951845782320875, -2.0, -2.0, 95.36077323246784, -1.065880418320131, -2.0, 85.45025767779455, -2.0, -2.0, -2.0, 86.58150402204204, -81.15614107165305, -2.0, -2.0, 2125.282881869135, -2.0, -2.0, 214.45328109592816, 88.9994213455354, 85.1653633430439, 0.8686691875889289, 125.4666804356811, 1955.5764263614901, 1895.0641077463813, -2.0, -2.0, -2.0, -2.0, -2.0, 86.23500938724494, 1044.674363669322, 327.49064341862254, 745.2138132775267, -2.0, -2.0, -2.0, 181.68951981686496, 0.12955584802178471, -2.0, -2.0, -2.0, 1633.865768872139, 1441.0586136542533, -2.0, -2.0, -2.0, 89.96391552964408, -2.0, -2.0, 123.84148829516093, -2.0, -2.0], "n_node_samples": [256, 231, 227, 2, 1, 1, 225, 3, 2, 1, 1, 1, 222, 86, 5, 1, 4, 1, 3, 81, 18, 1, 17, 63, 2, 61, 136, 135, 1, 134, 6, 128, 1, 4, 2, 1, 1, 2, 1, 1, 25, 23, 21, 6, 5, 4, 3, 2, 1, 1, 1, 1, 15, 12, 4, 3, 1, 2, 1, 8, 7, 6, 1, 1, 3, 2, 1, 1, 1, 2, 1, 1, 2, 1, 1]}, {"n_nodes": 97, "children_left": [1, 2, 3, 4, 5, -1, -1, 8, 9, 10, -1, 12, -1, -1, 15, -1, 17, -1, -1, 20, -1, -1, 23, 24, 25, -1, 27, -1, 29, -1, -1, -1, 33, 34, -1, 36, -1, -1, -1, 40, -1, 42, -1, 44, -1, 46, 47, 48, -1, -1, 51, -1, -1, 54, 55, -1, -1, 58, -1, -1, 61, 62, 63, -1, 65, 66, 67, 68, -1, -1, -1, 72, -1, -1, 75, 76, 77, -1, -1, -1, -1, 82, 83, -1, -1, 86, 87, 88, 89, -1, -1, -1, -1, -1, 95, -1, -1], "children_right": [60, 39, 22, 7, 6, -1, -1, 19, 14, 11, -1, 13, -1, -1, 16, -1, 18, -1, -1, 21, -1, -1, 32, 31, 26, -1, 28, -1, 30, -1, -1, -1, 38, 35, -1, 37, -1, -1, -1, 41, -1, 43, -1, 45, -1, 53, 50, 49, -1, -1, 52, -1, -1, 57, 56, -1, -1, 59, -1, -1, 94, 81, 64, -1, 74, 71, 70, 69, -1, -1, -1, 73, -1, -1, 80, 79, 78, -1, -1, -1, -1, 85, 84, -1, -1, 93, 92, 91, 90, -1, -1, -1, -1, -1, 96, -1, -1], "feature": [10, 24, 42, 26, 73, -2, -2, 88, 17, 118, -2, 88, -2, -2, 10, -2, 80, -2, -2, 60, -2, -2, 101, 88, 48, -2, 69, -2, 16, -2, -2, -2, 102, 114, -2, 22, -2, -2, -2, 34, -2, 102, -2, 26, -2, 90, 37, 87, -2, -2, 64, -2, -2, 85, 96, -2, -2, 68, -2, -2, 37, 54, 59, -2, 10, 77, 53, 17, -2, -2, -2, 58, -2, -2, 105, 85, 117, -2, -2, -2, -2, 66, 110, -2, -2, 4, 81, 112, 66, -2, -2, -2, -2, -2, 92, -2, -2], "threshold": [103.82693837109343, 866.3305680757996, 71.457493277014, -142.3190294133122, 86.79154121912622, -2.0, -2.0, 2430.032960389756, 87.69604583489524, -513.6131462383145, -2.0, 1261.6970314642867, -2.0, -2.0, -140.14164774405847, -2.0, 813.5320716228019, -2.0, -2.0, 1976.9320564106722, -2.0, -2.0, 88.17632047327996, 1770.9899862571574, 1278.853647584493, -2.0, 85.97877419878671, -2.0, 712.0198137005883, -2.0, -2.0, -2.0, 254.50217405636897, 23.39813530277374, -2.0, -34.22879071125239, -2.0, -2.0, -2.0, -1106.3033173509423, -2.0, -930.2943619262867, -2.0, -1055.3630677714773, -2.0, 87.01375384722542, 91.89360220213123, 0.38456622249659445, -2.0, -2.0, 1924.8037804750743, -2.0, -2.0, 84.68110108640096, 2250.9396034953834, -2.0, -2.0, 1424.8132365549977, -2.0, -2.0, 95.79607331184488, 10.803323281837322, -1.262551229103725, -2.0, 373.2496934119843, 86.0814272738441, 86.87884938804379, 85.75701203791286, -2.0, -2.0, -2.0, 0.16333873158476564, -2.0, -2.0, 90.79592594308589, 88.41936235661589, 87.63967251667738, -2.0, -2.0, -2.0, -2.0, -4.9733533025595165, 33.70335226212784, -2.0, -2.0, 2001.9208167078536, 90.73864498116944, 2028.047462250128, 175.49847876024361, -2.0, -2.0, -2.0, -2.0, -2.0, 2347.731759970417, -2.0, -2.0], "n_node_samples": [256, 232, 36, 27, 2, 1, 1, 25, 23, 18, 1, 17, 8, 9, 5, 1, 4, 3, 1, 2, 1, 1, 9, 5, 4, 1, 3, 1, 2, 1, 1, 1, 4, 3, 1, 2, 1, 1, 1, 196, 1, 195, 1, 194, 1, 193, 177, 168, 164, 4, 9, 1, 8, 16, 2, 1, 1, 14, 11, 3, 24, 22, 15, 1, 14, 10, 8, 7, 3, 4, 1, 2, 1, 1, 4, 3, 2, 1, 1, 1, 1, 7, 2, 1, 1, 5, 4, 3, 2, 1, 1, 1, 1, 1, 2, 1, 1]}, {"n_nodes": 85, "children_left": [1, 2, 3, -1, 5, -1, -1, 8, -1, 10, 11, -1, -1, -1, 15, 16, 17, 18, 19, -1, 21, 22, -1, -1, -1, 26, 27, -1, -1, 30, 31, -1, -1, -1, 35, 36, 37, -1, 39, -1, -1, 42, 43, -1, -1, -1, 47, 48, 49, -1, -1, -1, 53, 54, -1, -1, -1, 58, -1, 60, 61, 62, 63, -1, -1, 66, -1, -1, -1, 70, -1, -1, 73, 74, 75, -1, 77, -1, -1, -1, 81, -1, 83, -1, -1], "children_right": [14, 7, 4, -1, 6, -1, -1, 9, -1, 13, 12, -1, -1, -1, 72, 57, 34, 25, 20, -1, 24, 23, -1, -1, -1, 29, 28, -1, -1, 33, 32, -1, -1, -1, 46, 41, 38, -1, 40, -1, -1, 45, 44, -1, -1, -1, 52, 51, 50, -1, -1, -1, 56, 55, -1, -1, -1, 59, -1, 69, 68, 65, 64, -1, -1, 67, -1, -1, -1, 71, -1, -1, 80, 79, 76, -1, 78, -1, -1, -1, 82, -1, 84, -1, -1], "feature": [38, 76, 16, -2, 41, -2, -2, 95, -2, 32, 82, -2, -2, -2, 119, 64, 3, 92, 34, -2, 61, 97, -2, -2, -2, 53, 99, -2, -2, 52, 96, -2, -2, -2, 99, 65, 63, -2, 1, -2, -2, 41, 6, -2, -2, -2, 56, 9, 37, -2, -2, -2, 90, 40, -2, -2, -2, 70, -2, 9, 11, 0, 77, -2, -2, 26, -2, -2, -2, 34, -2, -2, 93, 76, 87, -2, 76, -2, -2, -2, 8, -2, 98, -2, -2], "threshold": [-388.1674777586793, 1292.0646404512527, 1371.5854092266343, -2.0, 86.77606058715659, -2.0, -2.0, -0.8520414116103395, -2.0, 4165.502605234973, -91.06956626850626, -2.0, -2.0, -2.0, 0.5922854540833671, 3300.815760206811, -0.6005853775891408, 1797.4697417316352, -107.03751937674244, -2.0, 89.64421818947616, 86.99527046037618, -2.0, -2.0, -2.0, 84.6636138934007, -0.2839464248548944, -2.0, -2.0, 2267.4044136723523, 2246.6924422908073, -2.0, -2.0, -2.0, -0.16716724967917762, 86.46743643398743, -0.6028414646176814, -2.0, 86.79549269182398, -2.0, -2.0, 90.06558669734075, 0.27734572546432995, -2.0, -2.0, -2.0, 3336.0735805970958, 95.23949600068829, 89.02442172496785, -2.0, -2.0, -2.0, -0.2459878885401352, 3260.484289635664, -2.0, -2.0, -2.0, -1054.5701651496674, -2.0, 89.86404159193116, 0.23234566265360715, 1461.2469300908256, 88.64866718307542, -2.0, -2.0, -3.279497248716419, -2.0, -2.0, -2.0, -875.1242378689927, -2.0, -2.0, 87.11491876706245, 1674.2733893116347, -0.6044426209313993, -2.0, 773.693878685913, -2.0, -2.0, -2.0, 1294.32640830722, -2.0, 136.54419766345256, -2.0, -2.0], "n_node_samples": [256, 7, 3, 1, 2, 1, 1, 4, 1, 3, 2, 1, 1, 1, 249, 242, 234, 9, 4, 1, 3, 2, 1, 1, 1, 5, 2, 1, 1, 3, 2, 1, 1, 1, 225, 6, 3, 1, 2, 1, 1, 3, 2, 1, 1, 1, 219, 216, 215, 180, 35, 1, 3, 2, 1, 1, 1, 8, 1, 7, 5, 4, 2, 1, 1, 2, 1, 1, 1, 2, 1, 1, 7, 4, 3, 1, 2, 1, 1, 1, 3, 1, 2, 1, 1]}, {"n_nodes": 85, "children_left": [1, 2, 3, -1, 5, 6, 7, 8, 9, -1, -1, 12, -1, -1, 15, 16, -1, -1, 19, -1, -1, 22, -1, 24, -1, -1, 27, -1, 29, -1, -1, 32, 33, -1, -1, -1, 37, 38, 39, 40, 41, -1, 43, 44, -1, -1, 47, -1, -1, 50, -1, 52, 53, -1, -1, -1, 57, -1, -1, 60, 61, -1, 63, -1, -1, 66, 67, 68, 69, -1, -1, 72, -1, -1, 75, 76, -1, -1, 79, -1, -1, -1, 83, -1, -1], "children_right": [36, 31, 4, -1, 26, 21, 14, 11, 10, -1, -1, 13, -1, -1, 18, 17, -1, -1, 20, -1, -1, 23, -1, 25, -1, -1, 28, -1, 30, -1, -1, 35, 34, -1, -1, -1, 82, 59, 56, 49, 42, -1, 46, 45, -1, -1, 48, -1, -1, 51, -1, 55, 54, -1, -1, -1, 58, -1, -1, 65, 62, -1, 64, -1, -1, 81, 74, 71, 70, -1, -1, 73, -1, -1, 78, 77, -1, -1, 80, -1, -1, -1, 84, -1, -1], "feature": [49, 38, 94, -2, 13, 0, 101, 90, 46, -2, -2, 104, -2, -2, 6, 30, -2, -2, 81, -2, -2, 88, -2, 10, -2, -2, 58, -2, 56, -2, -2, 12, 65, -2, -2, -2, 26, 33, 3, 88, 29, -2, 78, 22, -2, -2, 18, -2, -2, 114, -2, 90, 73, -2, -2, -2, 30, -2, -2, 71, 60, -2, 66, -2, -2, 44, 73, 49, 60, -2, -2, 115, -2, -2, 85, 99, -2, -2, 98, -2, -2, -2, 94, -2, -2], "threshold": [87.44053749900337, 695.0661818893004, -693.1437775921746, -2.0, 87.67529771834393, 3431.165141528549, 87.3378758148001, 109.96783418486257, -333.5655010708447, -2.0, -2.0, 2779.3494063235585, -2.0, -2.0, -72.38918654033411, -8.18359750750642, -2.0, -2.0, 87.13213958597376, -2.0, -2.0, 2424.6879701133294, -2.0, -351.795616485549, -2.0, -2.0, -124.81606563963743, -2.0, 2496.4943005067735, -2.0, -2.0, 1928.0530598466532, 86.82515887581984, -2.0, -2.0, -2.0, 1375.9550912431232, 88.18145174960674, 0.38461073692171405, 1392.271383847702, 87.24674242653266, -2.0, -66.01268907916392, 242.010064244275, -2.0, -2.0, 319.8867361610228, -2.0, -2.0, -441.76242589520405, -2.0, 438.1582787405505, 89.46980740012127, -2.0, -2.0, -2.0, 82.44087893070694, -2.0, -2.0, -0.4347987852221349, 2491.7941701378645, -2.0, -32.37353764584918, -2.0, -2.0, 5116.086137751157, 88.13659530884428, 88.24781599093592, 934.1687506633665, -2.0, -2.0, -0.35782812226462557, -2.0, -2.0, 90.5153088087753, -0.22698100666840604, -2.0, -2.0, 204.1979108234857, -2.0, -2.0, -2.0, -84.08845654134102, -2.0, -2.0], "n_node_samples": [256, 198, 195, 1, 194, 191, 188, 182, 167, 2, 165, 15, 12, 3, 6, 2, 1, 1, 4, 2, 2, 3, 1, 2, 1, 1, 3, 1, 2, 1, 1, 3, 2, 1, 1, 1, 58, 56, 23, 21, 11, 1, 10, 2, 1, 1, 8, 7, 1, 10, 1, 9, 8, 4, 4, 1, 2, 1, 1, 33, 3, 1, 2, 1, 1, 30, 29, 4, 2, 1, 1, 2, 1, 1, 25, 7, 1, 6, 18, 16, 2, 1, 2, 1, 1]}, {"n_nodes": 51, "children_left": [1, 2, -1, 4, 5, 6, 7, 8, -1, -1, 11, 12, -1, -1, -1, 16, 17, 18, -1, -1, 21, -1, -1, 24, -1, 26, -1, -1, -1, 30, -1, 32, 33, -1, -1, -1, 37, 38, 39, 40, -1, 42, -1, 44, -1, 46, -1, -1, -1, -1, -1], "children_right": [36, 3, -1, 29, 28, 15, 10, 9, -1, -1, 14, 13, -1, -1, -1, 23, 20, 19, -1, -1, 22, -1, -1, 25, -1, 27, -1, -1, -1, 31, -1, 35, 34, -1, -1, -1, 50, 49, 48, 41, -1, 43, -1, 45, -1, 47, -1, -1, -1, -1, -1], "feature": [35, 70, -2, 15, 42, 92, 14, 108, -2, -2, 21, 71, -2, -2, -2, 4, 14, 115, -2, -2, 0, -2, -2, 60, -2, 71, -2, -2, -2, 67, -2, 106, 28, -2, -2, -2, 115, 91, 118, 118, -2, 20, -2, 95, -2, 40, -2, -2, -2, -2, -2], "threshold": [0.370334892240509, -1566.6617736451615, -2.0, 0.7968207838930286, 1006.8057740418267, 1267.6234004640128, -202.31849254822288, 872.6636560562363, -2.0, -2.0, 92.60762151824665, -0.23080525278616937, -2.0, -2.0, -2.0, 2881.1131592812544, 446.16056716263324, 0.32273524968080936, -2.0, -2.0, 1588.2540347423655, -2.0, -2.0, 1708.547012640418, -2.0, -0.46288233830727743, -2.0, -2.0, -2.0, -0.308177481083282, -2.0, 60.72809391037006, 3447.572233344229, -2.0, -2.0, -2.0, 0.7972711072290647, 0.27756830643749253, 102.27939982771846, -227.61269927938127, -2.0, 815.3987957487808, -2.0, -0.7836935691459541, -2.0, 2662.8567211753025, -2.0, -2.0, -2.0, -2.0, -2.0], "n_node_samples": [256, 244, 1, 243, 239, 238, 68, 2, 1, 1, 66, 65, 2, 63, 1, 170, 161, 159, 156, 3, 2, 1, 1, 9, 1, 8, 2, 6, 1, 4, 1, 3, 2, 1, 1, 1, 12, 11, 10, 9, 1, 8, 1, 7, 1, 6, 4, 2, 1, 1, 1]}, {"n_nodes": 51, "children_left": [1, 2, -1, -1, 5, -1, 7, 8, 9, -1, -1, 12, 13, 14, -1, 16, -1, -1, -1, -1, 21, 22, 23, -1, 25, 26, -1, -1, -1, 30, 31, 32, -1, -1, 35, -1, -1, 38, 39, -1, -1, -1, 43, -1, 45, 46, -1, 48, -1, -1, -1], "children_right": [4, 3, -1, -1, 6, -1, 20, 11, 10, -1, -1, 19, 18, 15, -1, 17, -1, -1, -1, -1, 42, 29, 24, -1, 28, 27, -1, -1, -1, 37, 34, 33, -1, -1, 36, -1, -1, 41, 40, -1, -1, -1, 44, -1, 50, 47, -1, 49, -1, -1, -1], "feature": [110, 60, -2, -2, 115, -2, 111, 26, 100, -2, -2, 113, 84, 0, -2, 5, -2, -2, -2, -2, 32, 105, 10, -2, 84, 75, -2, -2, -2, 113, 16, 9, -2, -2, 92, -2, -2, 55, 110, -2, -2, -2, 95, -2, 42, 106, -2, 65, -2, -2, -2], "threshold": [-532.8742088637661, 2251.0727090109476, -2.0, -2.0, -1.7823825440287508, -2.0, -0.3252426382737432, 14.672500371314811, 2611.565283253121, -2.0, -2.0, 89.26622211666137, 3050.2165327659886, 2084.7603665035035, -2.0, 85.89616393945002, -2.0, -2.0, -2.0, -2.0, 4146.582591851047, 87.99386618192953, -1198.9596182415073, -2.0, 3224.5498842105967, 0.45297760397800135, -2.0, -2.0, -2.0, 90.7858015982368, 1147.7833810862076, 87.63455491682261, -2.0, -2.0, 1673.3667452602492, -2.0, -2.0, 0.6392568348158416, 495.34223052409584, -2.0, -2.0, -2.0, -1.407072702146635, -2.0, 166.24024522269156, -57.39541257656897, -2.0, 88.02011239017365, -2.0, -2.0, -2.0], "n_node_samples": [256, 2, 1, 1, 254, 1, 253, 7, 2, 1, 1, 5, 4, 3, 1, 2, 1, 1, 1, 1, 246, 241, 181, 1, 180, 179, 166, 13, 1, 60, 27, 13, 8, 5, 14, 4, 10, 33, 32, 29, 3, 1, 5, 1, 4, 3, 1, 2, 1, 1, 1]}, {"n_nodes": 89, "children_left": [1, 2, 3, -1, 5, 6, 7, -1, -1, 10, -1, -1, 13, 14, 15, 16, -1, -1, 19, -1, -1, 22, 23, -1, -1, 26, -1, -1, 29, -1, -1, 32, -1, 34, 35, 36, -1, -1, -1, 40, -1, 42, -1, -1, 45, 46, 47, 48, -1, 50, -1, -1, 53, -1, 55, 56, -1, 58, -1, -1, -1, 62, 63, 64, 65, -1, 67, -1, -1, 70, -1, 72, -1, -1, 75, -1, -1, 78, -1, -1, 81, -1, 83, -1, 85, 86, -1, -1, -1], "children_right": [44, 31, 4, -1, 12, 9, 8, -1, -1, 11, -1, -1, 28, 21, 18, 17, -1, -1, 20, -1, -1, 25, 24, -1, -1, 27, -1, -1, 30, -1, -1, 33, -1, 39, 38, 37, -1, -1, -1, 41, -1, 43, -1, -1, 80, 61, 52, 49, -1, 51, -1, -1, 54, -1, 60, 57, -1, 59, -1, -1, -1, 77, 74, 69, 66, -1, 68, -1, -1, 71, -1, 73, -1, -1, 76, -1, -1, 79, -1, -1, 82, -1, 84, -1, 88, 87, -1, -1, -1], "feature": [105, 0, 54, -2, 70, 52, 114, -2, -2, 32, -2, -2, 6, 44, 72, 106, -2, -2, 104, -2, -2, 71, 0, -2, -2, 49, -2, -2, 21, -2, -2, 115, -2, 93, 6, 100, -2, -2, -2, 57, -2, 37, -2, -2, 85, 24, 50, 72, -2, 76, -2, -2, 6, -2, 15, 15, -2, 104, -2, -2, -2, 75, 23, 20, 21, -2, 28, -2, -2, 34, -2, 103, -2, -2, 54, -2, -2, 82, -2, -2, 30, -2, 45, -2, 102, 54, -2, -2, -2], "threshold": [87.87280159623958, 3075.786884128017, -351.06213908133196, -2.0, -966.109823764353, 2738.631052867803, -12.047410399209433, -2.0, -2.0, 2021.3422479752182, -2.0, -2.0, 338.6878121638149, 908.3841906093919, 790.7214561098821, -494.7425417572923, -2.0, -2.0, 1897.6337607203209, -2.0, -2.0, 0.919173100925597, 2852.6924787888734, -2.0, -2.0, 83.0782615617282, -2.0, -2.0, 85.05338799164322, -2.0, -2.0, -0.948408079309579, -2.0, 86.64709686052385, -73.8198832784872, 1103.339794436628, -2.0, -2.0, -2.0, 87.9369619530332, -2.0, 91.72022232493396, -2.0, -2.0, 95.13646711555145, 1053.3547298649114, -6.907226447438461, 667.3031720040847, -2.0, 811.2107648785276, -2.0, -2.0, -167.57911294539417, -2.0, 0.3116938179878954, -0.8434620904007284, -2.0, 1897.3053082820518, -2.0, -2.0, -2.0, 0.23941223194795302, 0.32880947707631125, 1260.4289680083416, 86.28601624504012, -2.0, 1290.5441409663968, -2.0, -2.0, -1716.947742257243, -2.0, 0.9316618502753142, -2.0, -2.0, 534.7708783595688, -2.0, -2.0, 23.656772809874624, -2.0, -2.0, -1009.1608651774753, -2.0, 94.41585510522866, -2.0, 31.732887402518138, 4.1220529364058995, -2.0, -2.0, -2.0], "n_node_samples": [256, 199, 192, 1, 191, 4, 2, 1, 1, 2, 1, 1, 187, 185, 36, 3, 1, 2, 33, 29, 4, 149, 145, 139, 6, 4, 1, 3, 2, 1, 1, 7, 1, 6, 3, 2, 1, 1, 1, 3, 1, 2, 1, 1, 57, 52, 13, 3, 1, 2, 1, 1, 10, 1, 9, 8, 1, 7, 6, 1, 1, 39, 37, 35, 3, 1, 2, 1, 1, 32, 1, 31, 30, 1, 2, 1, 1, 2, 1, 1, 5, 1, 4, 1, 3, 2, 1, 1, 1]}, {"n_nodes": 77, "children_left": [1, 2, -1, -1, 5, 6, 7, 8, 9, 10, 11, -1, -1, 14, -1, -1, 17, 18, -1, -1, -1, 22, -1, -1, 25, 26, 27, -1, 29, -1, -1, 32, -1, -1, 35, -1, 37, -1, -1, 40, 41, 42, -1, 44, 45, -1, -1, 48, -1, -1, 51, 52, 53, -1, -1, 56, -1, -1, 59, 60, -1, -1, 63, -1, -1, 66, -1, 68, -1, -1, 71, -1, 73, 74, -1, -1, -1], "children_right": [4, 3, -1, -1, 70, 39, 24, 21, 16, 13, 12, -1, -1, 15, -1, -1, 20, 19, -1, -1, -1, 23, -1, -1, 34, 31, 28, -1, 30, -1, -1, 33, -1, -1, 36, -1, 38, -1, -1, 65, 50, 43, -1, 47, 46, -1, -1, 49, -1, -1, 58, 55, 54, -1, -1, 57, -1, -1, 62, 61, -1, -1, 64, -1, -1, 67, -1, 69, -1, -1, 72, -1, 76, 75, -1, -1, -1], "feature": [51, 85, -2, -2, 96, 65, 38, 98, 9, 53, 40, -2, -2, 90, -2, -2, 30, 58, -2, -2, -2, 101, -2, -2, 33, 105, 21, -2, 41, -2, -2, 21, -2, -2, 109, -2, 78, -2, -2, 106, 102, 5, -2, 81, 28, -2, -2, 52, -2, -2, 35, 72, 35, -2, -2, 112, -2, -2, 13, 58, -2, -2, 80, -2, -2, 54, -2, 52, -2, -2, 45, -2, 92, 80, -2, -2, -2], "threshold": [-1.7437329738138863, 87.5920450946279, -2.0, -2.0, 4776.21955712662, 86.70226098117524, 94.34251388271446, 624.9254140024657, 86.03511038843314, 86.61479373444561, 956.0235870191937, -2.0, -2.0, 118.23408406890653, -2.0, -2.0, 121.32131298786089, 4.814815148624973, -2.0, -2.0, -2.0, 86.68730628149925, -2.0, -2.0, 85.21510306616085, 86.37946835177925, 83.15026983625734, -2.0, 84.89065395243962, -2.0, -2.0, 83.20213318066772, -2.0, -2.0, 85.11570084845447, -2.0, -507.71721264799925, -2.0, -2.0, 662.8471942780761, -130.99381532985421, 85.2955900380833, -2.0, 88.92855552720305, 1992.5734347643206, -2.0, -2.0, 3348.123733689135, -2.0, -2.0, 0.17205918728004166, 878.9244726877307, -0.6560973933227814, -2.0, -2.0, 1918.3088059384881, -2.0, -2.0, 88.97744662406735, -10.407228883545486, -2.0, -2.0, 4605.750065153348, -2.0, -2.0, -153.40891121440052, -2.0, 776.7581302485233, -2.0, -2.0, 85.54032177223839, -2.0, 5158.998941593337, 3483.5562667406894, -2.0, -2.0, -2.0], "n_node_samples": [256, 2, 1, 1, 254, 250, 146, 135, 133, 124, 122, 9, 113, 2, 1, 1, 9, 8, 4, 4, 1, 2, 1, 1, 11, 8, 6, 1, 5, 3, 2, 2, 1, 1, 3, 1, 2, 1, 1, 104, 101, 13, 1, 12, 8, 7, 1, 4, 3, 1, 88, 84, 26, 1, 25, 58, 30, 28, 4, 2, 1, 1, 2, 1, 1, 3, 1, 2, 1, 1, 4, 1, 3, 2, 1, 1, 1]}, {"n_nodes": 85, "children_left": [1, 2, 3, 4, 5, 6, -1, -1, 9, 10, 11, -1, -1, 14, -1, -1, 17, 18, -1, -1, -1, 22, 23, 24, 25, -1, -1, 28, -1, -1, 31, -1, 33, -1, -1, 36, 37, 38, -1, -1, 41, -1, -1, -1, 45, 46, -1, -1, 49, 50, 51, 52, -1, -1, 55, -1, -1, -1, 59, -1, -1, 62, -1, -1, 65, 66, -1, 68, 69, -1, 71, -1, 73, 74, -1, -1, -1, 78, 79, -1, -1, -1, 83, -1, -1], "children_right": [64, 61, 44, 21, 8, 7, -1, -1, 16, 13, 12, -1, -1, 15, -1, -1, 20, 19, -1, -1, -1, 35, 30, 27, 26, -1, -1, 29, -1, -1, 32, -1, 34, -1, -1, 43, 40, 39, -1, -1, 42, -1, -1, -1, 48, 47, -1, -1, 58, 57, 54, 53, -1, -1, 56, -1, -1, -1, 60, -1, -1, 63, -1, -1, 82, 67, -1, 77, 70, -1, 72, -1, 76, 75, -1, -1, -1, 81, 80, -1, -1, -1, 84, -1, -1], "feature": [43, 16, 2, 66, 75, 42, -2, -2, 73, 75, 12, -2, -2, 33, -2, -2, 3, 110, -2, -2, -2, 12, 94, 34, 34, -2, -2, 62, -2, -2, 57, -2, 65, -2, -2, 72, 16, 60, -2, -2, 5, -2, -2, -2, 62, 30, -2, -2, 113, 93, 56, 109, -2, -2, 57, -2, -2, -2, 62, -2, -2, 73, -2, -2, 1, 34, -2, 58, 74, -2, 6, -2, 69, 36, -2, -2, -2, 34, 66, -2, -2, -2, 17, -2, -2], "threshold": [0.26208236080691316, 4896.40738054803, 137.09999594795522, 185.47809551026603, -1.2675127178744938, 11.95376441672154, -2.0, -2.0, 92.60869618673283, 0.0602970910539371, 2073.137823623669, -2.0, -2.0, 85.26443552610671, -2.0, -2.0, 1.8338136662886542, -73.48611328680353, -2.0, -2.0, -2.0, 1041.8288610441746, 118.78955258046722, 324.3891924183765, -254.31994661843402, -2.0, -2.0, 203.74728125834247, -2.0, -2.0, 85.69803998931219, -2.0, 86.95281616177076, -2.0, -2.0, 3239.2324434645625, 1729.2225458529883, 1817.8547143665396, -2.0, -2.0, 84.35267164947123, -2.0, -2.0, -2.0, -303.889337072563, 71.56094985621094, -2.0, -2.0, 91.4639974550642, 88.05597284718229, 1955.2418983980276, 86.55929887181115, -2.0, -2.0, 85.67925356732647, -2.0, -2.0, -2.0, 21.009117124140783, -2.0, -2.0, 90.7603880389409, -2.0, -2.0, 89.56763409803045, -157.30458084880593, -2.0, 52.38401685719565, -80.18333787572726, -2.0, -93.57544504645068, -2.0, 85.17662013889132, 2307.511659431975, -2.0, -2.0, -2.0, 108.83079837534149, 13.937935807247616, -2.0, -2.0, -2.0, 90.2705738401369, -2.0, -2.0], "n_node_samples": [256, 245, 243, 228, 213, 2, 1, 1, 211, 205, 201, 125, 76, 4, 1, 3, 6, 5, 1, 4, 1, 15, 9, 6, 4, 1, 3, 2, 1, 1, 3, 1, 2, 1, 1, 6, 5, 2, 1, 1, 3, 1, 2, 1, 15, 2, 1, 1, 13, 11, 10, 6, 2, 4, 4, 3, 1, 1, 2, 1, 1, 2, 1, 1, 11, 9, 1, 8, 5, 1, 4, 1, 3, 2, 1, 1, 1, 3, 2, 1, 1, 1, 2, 1, 1]}, {"n_nodes": 43, "children_left": [1, 2, 3, 4, -1, -1, 7, 8, -1, -1, -1, -1, 13, 14, -1, 16, 17, -1, -1, -1, 21, 22, 23, -1, 25, -1, -1, 28, -1, 30, 31, 32, -1, -1, 35, -1, -1, 38, 39, -1, -1, -1, -1], "children_right": [12, 11, 6, 5, -1, -1, 10, 9, -1, -1, -1, -1, 20, 15, -1, 19, 18, -1, -1, -1, 42, 27, 24, -1, 26, -1, -1, 29, -1, 37, 34, 33, -1, -1, 36, -1, -1, 41, 40, -1, -1, -1, -1], "feature": [101, 105, 82, 24, -2, -2, 28, 100, -2, -2, -2, -2, 22, 29, -2, 20, 88, -2, -2, -2, 49, 34, 87, -2, 94, -2, -2, 9, -2, 67, 103, 52, -2, -2, 0, -2, -2, 85, 2, -2, -2, -2, -2], "threshold": [83.0037543997186, 83.39530871268143, -94.75108958676043, 2607.7423633177496, -2.0, -2.0, 1846.6108788073113, 797.049131406494, -2.0, -2.0, -2.0, -2.0, -480.6883796936313, 85.75800229225214, -2.0, 3936.7119334320128, 1927.9007154986732, -2.0, -2.0, -2.0, 94.48007745970044, -310.87466490542266, 0.7569135580011241, -2.0, -38.27898456402076, -2.0, -2.0, 83.49920669593811, -2.0, 0.009729886897714035, 1.371829453563238, 2466.4055694734707, -2.0, -2.0, 1185.2800650304557, -2.0, -2.0, 88.56739421680913, -71.58415117980174, -2.0, -2.0, -2.0, -2.0], "n_node_samples": [256, 6, 5, 2, 1, 1, 3, 2, 1, 1, 1, 1, 250, 4, 1, 3, 2, 1, 1, 1, 246, 245, 3, 1, 2, 1, 1, 242, 1, 241, 237, 235, 181, 54, 2, 1, 1, 4, 3, 1, 2, 1, 1]}, {"n_nodes": 81, "children_left": [1, 2, 3, 4, 5, 6, 7, -1, -1, 10, -1, 12, -1, -1, -1, -1, 17, 18, 19, 20, -1, -1, 23, -1, 25, -1, -1, 28, 29, 30, -1, -1, 33, -1, -1, 36, 37, -1, -1, -1, 41, 42, -1, -1, -1, 46, 47, 48, 49, -1, -1, -1, 53, -1, -1, -1, 57, 58, -1, 60, 61, 62, -1, 64, -1, -1, -1, 68, -1, -1, 71, -1, 73, 74, -1, 76, -1, -1, 79, -1, -1], "children_right": [56, 45, 16, 15, 14, 9, 8, -1, -1, 11, -1, 13, -1, -1, -1, -1, 40, 27, 22, 21, -1, -1, 24, -1, 26, -1, -1, 35, 32, 31, -1, -1, 34, -1, -1, 39, 38, -1, -1, -1, 44, 43, -1, -1, -1, 55, 52, 51, 50, -1, -1, -1, 54, -1, -1, -1, 70, 59, -1, 67, 66, 63, -1, 65, -1, -1, -1, 69, -1, -1, 72, -1, 78, 75, -1, 77, -1, -1, 80, -1, -1], "feature": [72, 79, 19, 94, 82, 116, 96, -2, -2, 111, -2, 16, -2, -2, -2, -2, 92, 96, 51, 6, -2, -2, 50, -2, 104, -2, -2, 39, 89, 30, -2, -2, 42, -2, -2, 46, 22, -2, -2, -2, 12, 29, -2, -2, -2, 63, 37, 44, 66, -2, -2, -2, 50, -2, -2, -2, 108, 111, -2, 116, 26, 110, -2, 44, -2, -2, -2, 98, -2, -2, 10, -2, 97, 106, -2, 72, -2, -2, 65, -2, -2], "threshold": [2843.623946316365, 0.7422827378577939, -0.2752772864304843, 597.5826811434621, 195.351022666018, 1135.341408742285, 895.1649986413145, -2.0, -2.0, -0.21966879359431046, -2.0, 2028.8556104338986, -2.0, -2.0, -2.0, -2.0, 2902.367388393901, 1574.5487712731347, -0.08030661711483567, -34.87454496877014, -2.0, -2.0, -624.1544137579176, -2.0, 2112.6942856901765, -2.0, -2.0, 0.6504563641038055, 94.90115043656023, 406.0305261486353, -2.0, -2.0, -11.486697273555535, -2.0, -2.0, 179.90427970835208, 5.8730843276125775, -2.0, -2.0, -2.0, 2225.2353608274066, 85.73562717984227, -2.0, -2.0, -2.0, 0.140678709904048, 89.42793319487382, 1613.9961368385684, 68.03185805121058, -2.0, -2.0, -2.0, -63.659231296581794, -2.0, -2.0, -2.0, 3203.6644406806045, -0.9759994912780819, -2.0, 2586.29311339012, 754.1328869374156, -148.17465869438587, -2.0, 2220.6735197974713, -2.0, -2.0, -2.0, -9.91150428676582, -2.0, -2.0, -231.0249141221982, -2.0, 86.07978780664493, -2018.9316059043313, -2.0, 3931.2499460555846, -2.0, -2.0, 86.26445289946369, -2.0, -2.0], "n_node_samples": [256, 243, 237, 10, 9, 8, 2, 1, 1, 6, 1, 5, 3, 2, 1, 1, 227, 224, 82, 2, 1, 1, 80, 1, 79, 77, 2, 142, 137, 132, 129, 3, 5, 1, 4, 5, 4, 1, 3, 1, 3, 2, 1, 1, 1, 6, 5, 3, 2, 1, 1, 1, 2, 1, 1, 1, 13, 7, 1, 6, 4, 3, 1, 2, 1, 1, 1, 2, 1, 1, 6, 1, 5, 3, 1, 2, 1, 1, 2, 1, 1]}, {"n_nodes": 107, "children_left": [1, 2, 3, 4, 5, 6, -1, -1, 9, -1, -1, -1, 13, 14, -1, 16, 17, 18, -1, -1, 21, -1, -1, 24, -1, -1, -1, 28, 29, 30, -1, 32, 33, 34, -1, -1, 37, -1, -1, 40, 41, -1, -1, 44, -1, -1, 47, 48, 49, 50, -1, -1, 53, -1, -1, 56, -1, 58, -1, -1, 61, 62, 63, -1, -1, 66, -1, -1, 69, -1, -1, 72, 73, 74, 75, -1, 77, -1, -1, -1, 81, -1, 83, -1, -1, -1, 87, 88, 89, 90, 91, -1, -1, 94, 95, -1, -1, 98, -1, 100, -1, -1, -1, 104, -1, -1, -1], "children_right": [86, 27, 12, 11, 8, 7, -1, -1, 10, -1, -1, -1, 26, 15, -1, 23, 20, 19, -1, -1, 22, -1, -1, 25, -1, -1, -1, 71, 46, 31, -1, 39, 36, 35, -1, -1, 38, -1, -1, 43, 42, -1, -1, 45, -1, -1, 60, 55, 52, 51, -1, -1, 54, -1, -1, 57, -1, 59, -1, -1, 68, 65, 64, -1, -1, 67, -1, -1, 70, -1, -1, 85, 80, 79, 76, -1, 78, -1, -1, -1, 82, -1, 84, -1, -1, -1, 106, 103, 102, 93, 92, -1, -1, 97, 96, -1, -1, 99, -1, 101, -1, -1, -1, 105, -1, -1, -1], "feature": [12, 90, 42, 62, 113, 107, -2, -2, 37, -2, -2, -2, 9, 18, -2, 101, 10, 45, -2, -2, 116, -2, -2, 33, -2, -2, -2, 109, 61, 27, -2, 37, 110, 99, -2, -2, 39, -2, -2, 64, 34, -2, -2, 2, -2, -2, 92, 92, 68, 11, -2, -2, 36, -2, -2, 83, -2, 78, -2, -2, 21, 98, 20, -2, -2, 8, -2, -2, 105, -2, -2, 48, 113, 41, 22, -2, 96, -2, -2, -2, 71, -2, 58, -2, -2, -2, 93, 40, 77, 58, 77, -2, -2, 28, 48, -2, -2, 46, -2, 56, -2, -2, -2, 82, -2, -2, -2], "threshold": [3000.718661590814, -98.98530267411161, -68.61119234962916, 189.1772532235725, 84.02031938779183, -0.7057496047139864, -2.0, -2.0, 87.26889962389548, -2.0, -2.0, -2.0, 90.21233749539235, -659.8755365549007, -2.0, 90.08153095845205, 66.31696852171655, 85.88465777313553, -2.0, -2.0, 766.6238607417904, -2.0, -2.0, 90.44417274018944, -2.0, -2.0, -2.0, 91.51634308254177, 89.0867750714937, -1.601320779696722, -2.0, 87.47645561931489, 122.62513187417068, 0.990404333449157, -2.0, -2.0, 0.5500436478993127, -2.0, -2.0, 1421.6434857638756, -113.40687425686366, -2.0, -2.0, -21.1634476078504, -2.0, -2.0, 2209.0274338051804, 1933.9152036555647, 1471.4562794749886, 0.8639022916852973, -2.0, -2.0, 1696.0350742153987, -2.0, -2.0, -0.9636021246964122, -2.0, 108.33696546793774, -2.0, -2.0, 90.62990344857327, 32.6639976262413, 1935.342493743795, -2.0, -2.0, 1833.4579341879385, -2.0, -2.0, 89.04766952854007, -2.0, -2.0, 3877.10169139742, 94.94349424631497, 94.49018073430759, -129.03564002552798, -2.0, 2139.904824590266, -2.0, -2.0, -2.0, -0.8538083740760611, -2.0, -1.7752647426795534, -2.0, -2.0, -2.0, 87.38064680731885, 3286.3815156064843, 86.75843877892869, -70.76990340406536, 83.84940700971028, -2.0, -2.0, 2808.6784926372015, 2652.683994750345, -2.0, -2.0, -64.92688072236575, -2.0, 2683.7854628911173, -2.0, -2.0, -2.0, -224.58330765254019, -2.0, -2.0, -2.0], "n_node_samples": [256, 245, 27, 5, 4, 2, 1, 1, 2, 1, 1, 1, 22, 21, 1, 20, 18, 13, 4, 9, 5, 2, 3, 2, 1, 1, 1, 218, 201, 181, 1, 180, 162, 147, 143, 4, 15, 12, 3, 18, 11, 1, 10, 7, 2, 5, 20, 14, 6, 4, 3, 1, 2, 1, 1, 8, 1, 7, 6, 1, 6, 4, 2, 1, 1, 2, 1, 1, 2, 1, 1, 17, 16, 13, 12, 1, 11, 7, 4, 1, 3, 1, 2, 1, 1, 1, 11, 10, 8, 7, 2, 1, 1, 5, 2, 1, 1, 3, 1, 2, 1, 1, 1, 2, 1, 1, 1]}, {"n_nodes": 77, "children_left": [1, 2, 3, -1, -1, 6, 7, 8, 9, 10, 11, -1, -1, 14, -1, -1, 17, 18, -1, -1, 21, -1, -1, -1, 25, 26, 27, -1, -1, -1, -1, -1, 33, 34, 35, 36, 37, 38, -1, -1, 41, -1, -1, -1, -1, 46, 47, 48, 49, -1, -1, -1, 53, 54, 55, -1, -1, 58, -1, -1, 61, 62, -1, -1, 65, -1, -1, 68, -1, -1, 71, 72, 73, -1, -1, -1, -1], "children_right": [32, 5, 4, -1, -1, 31, 24, 23, 16, 13, 12, -1, -1, 15, -1, -1, 20, 19, -1, -1, 22, -1, -1, -1, 30, 29, 28, -1, -1, -1, -1, -1, 70, 45, 44, 43, 40, 39, -1, -1, 42, -1, -1, -1, -1, 67, 52, 51, 50, -1, -1, -1, 60, 57, 56, -1, -1, 59, -1, -1, 64, 63, -1, -1, 66, -1, -1, 69, -1, -1, 76, 75, 74, -1, -1, -1, -1], "feature": [4, 73, 68, -2, -2, 88, 115, 9, 76, 24, 21, -2, -2, 5, -2, -2, 85, 46, -2, -2, 17, -2, -2, -2, 24, 113, 70, -2, -2, -2, -2, -2, 15, 54, 53, 111, 5, 74, -2, -2, 78, -2, -2, -2, -2, 108, 34, 80, 70, -2, -2, -2, 97, 93, 40, -2, -2, 8, -2, -2, 96, 118, -2, -2, 12, -2, -2, 112, -2, -2, 96, 5, 1, -2, -2, -2, -2], "threshold": [1802.4440539513919, 84.54999755348544, 2931.4427714103103, -2.0, -2.0, 4313.547280609397, 0.4124827242514504, 92.70947070825355, 1018.0304483012437, 1497.2379991986036, 85.33423462758503, -2.0, -2.0, 86.67011074613319, -2.0, -2.0, 87.7794327394941, 773.4316306498049, -2.0, -2.0, 88.29334265752385, -2.0, -2.0, -2.0, 923.5036661189532, 89.32764915811254, -220.12001516722142, -2.0, -2.0, -2.0, -2.0, -2.0, 0.9677510252072248, -266.6443967803589, 89.30217333478024, 1.783069411191656, 85.64068124007466, 51.84515514264126, -2.0, -2.0, 6.039782979078495, -2.0, -2.0, -2.0, -2.0, 6226.098113898233, -427.93672481269414, 2240.27218026308, 162.4316117360404, -2.0, -2.0, -2.0, 88.71510062027494, 84.65845319473112, 2418.0405698958975, -2.0, -2.0, 3038.0064880736204, -2.0, -2.0, 1264.3830388618553, 432.9035052852256, -2.0, -2.0, 4069.749150218325, -2.0, -2.0, 4277.547904535452, -2.0, -2.0, 2646.767732984744, 90.66929328985013, 85.48974225692905, -2.0, -2.0, -2.0, -2.0], "n_node_samples": [256, 110, 2, 1, 1, 108, 107, 103, 102, 42, 34, 5, 29, 8, 4, 4, 60, 42, 41, 1, 18, 9, 9, 1, 4, 3, 2, 1, 1, 1, 1, 1, 146, 142, 6, 5, 4, 2, 1, 1, 2, 1, 1, 1, 1, 136, 134, 3, 2, 1, 1, 1, 131, 110, 20, 8, 12, 90, 86, 4, 21, 3, 2, 1, 18, 17, 1, 2, 1, 1, 4, 3, 2, 1, 1, 1, 1]}, {"n_nodes": 45, "children_left": [1, -1, 3, 4, -1, 6, 7, 8, -1, -1, 11, -1, 13, -1, 15, -1, -1, 18, 19, -1, -1, -1, 23, 24, -1, 26, 27, 28, 29, -1, -1, 32, -1, -1, 35, -1, 37, -1, -1, 40, 41, -1, -1, -1, -1], "children_right": [2, -1, 22, 5, -1, 17, 10, 9, -1, -1, 12, -1, 14, -1, 16, -1, -1, 21, 20, -1, -1, -1, 44, 25, -1, 39, 34, 31, 30, -1, -1, 33, -1, -1, 36, -1, 38, -1, -1, 43, 42, -1, -1, -1, -1], "feature": [50, -2, 95, 86, -2, 73, 69, 88, -2, -2, 108, -2, 36, -2, 41, -2, -2, 104, 104, -2, -2, -2, 100, 98, -2, 76, 70, 17, 14, -2, -2, 35, -2, -2, 68, -2, 81, -2, -2, 30, 116, -2, -2, -2, -2], "threshold": [-1001.0628412841181, -2.0, -0.007294137965559111, -164.10813665907267, -2.0, 87.53974605702783, 85.76805904031175, 2184.6536189032036, -2.0, -2.0, 1446.1255688123058, -2.0, 1868.1564769191464, -2.0, 85.33538083142386, -2.0, -2.0, 2791.8927077706403, 2556.038111255522, -2.0, -2.0, -2.0, 6590.56437212907, -958.7057678148643, -2.0, 5787.450061289337, 455.9938436229686, 87.89542855876284, -111.8436280604655, -2.0, -2.0, -1.2434411622786155, -2.0, -2.0, 1779.8123500760703, -2.0, 89.29611393683409, -2.0, -2.0, 494.14377500682315, 4827.434696308073, -2.0, -2.0, -2.0, -2.0], "n_node_samples": [256, 1, 255, 10, 1, 9, 6, 2, 1, 1, 4, 1, 3, 1, 2, 1, 1, 3, 2, 1, 1, 1, 245, 244, 1, 243, 240, 235, 182, 13, 169, 53, 1, 52, 5, 1, 4, 3, 1, 3, 2, 1, 1, 1, 1]}, {"n_nodes": 45, "children_left": [1, 2, 3, -1, 5, 6, 7, 8, -1, 10, -1, -1, -1, 14, -1, 16, 17, -1, -1, 20, -1, -1, 23, 24, 25, -1, -1, 28, 29, -1, -1, -1, 33, 34, 35, -1, -1, -1, 39, -1, -1, -1, 43, -1, -1], "children_right": [42, 41, 4, -1, 22, 13, 12, 9, -1, 11, -1, -1, -1, 15, -1, 19, 18, -1, -1, 21, -1, -1, 32, 27, 26, -1, -1, 31, 30, -1, -1, -1, 38, 37, 36, -1, -1, -1, 40, -1, -1, -1, 44, -1, -1], "feature": [92, 6, 82, -2, 4, 106, 5, 110, -2, 110, -2, -2, -2, 31, -2, 37, 68, -2, -2, 70, -2, -2, 22, 2, 41, -2, -2, 104, 26, -2, -2, -2, 1, 69, 41, -2, -2, -2, 42, -2, -2, -2, 116, -2, -2], "threshold": [4718.876371158695, 1352.0618040641127, -1935.2364086481912, -2.0, 2678.5554027392322, -765.7781489699977, 87.40841716733222, -0.858661913247154, -2.0, 105.06139679488791, -2.0, -2.0, -2.0, -1.258080474221185, -2.0, 92.12714738218446, 4717.043385630959, -2.0, -2.0, -90.65834451171493, -2.0, -2.0, -94.71837075740024, -27.506241399564885, 88.32703875486135, -2.0, -2.0, 2904.7808579391713, -86.539991953196, -2.0, -2.0, -2.0, 93.7015882049229, 88.13092708407478, 89.68741430513906, -2.0, -2.0, -2.0, -68.62807212799233, -2.0, -2.0, -2.0, 5295.223147617291, -2.0, -2.0], "n_node_samples": [256, 254, 253, 1, 252, 216, 4, 3, 1, 2, 1, 1, 1, 212, 1, 211, 206, 205, 1, 5, 1, 4, 36, 6, 2, 1, 1, 4, 3, 2, 1, 1, 30, 28, 27, 26, 1, 1, 2, 1, 1, 1, 2, 1, 1]}, {"n_nodes": 59, "children_left": [1, 2, 3, -1, 5, 6, 7, -1, -1, -1, 11, -1, 13, -1, -1, -1, 17, 18, 19, 20, -1, 22, 23, -1, 25, -1, -1, 28, 29, -1, -1, 32, -1, -1, 35, 36, -1, -1, 39, 40, 41, -1, -1, -1, -1, 46, -1, 48, 49, -1, 51, 52, -1, -1, 55, -1, -1, -1, -1], "children_right": [16, 15, 4, -1, 10, 9, 8, -1, -1, -1, 12, -1, 14, -1, -1, -1, 58, 45, 34, 21, -1, 27, 24, -1, 26, -1, -1, 31, 30, -1, -1, 33, -1, -1, 38, 37, -1, -1, 44, 43, 42, -1, -1, -1, -1, 47, -1, 57, 50, -1, 54, 53, -1, -1, 56, -1, -1, -1, -1], "feature": [118, 68, 50, -2, 101, 24, 116, -2, -2, -2, 69, -2, 5, -2, -2, -2, 40, 37, 87, 110, -2, 104, 10, -2, 67, -2, -2, 41, 34, -2, -2, 61, -2, -2, 57, 78, -2, -2, 75, 80, 52, -2, -2, -2, -2, 22, -2, 15, 25, -2, 21, 117, -2, -2, 6, -2, -2, -2, -2], "threshold": [-287.3082865831947, 4748.146398257067, -522.4933596819143, -2.0, 86.14411014790838, 1507.4744728293617, 1277.3996125452218, -2.0, -2.0, -2.0, 86.66750146805659, -2.0, 86.42280770066326, -2.0, -2.0, -2.0, 5940.2487896821685, 94.52867565235528, 0.2745603533808889, -1097.7192418988418, -2.0, 2140.71316232938, -559.213127483713, -2.0, 0.4808248111423221, -2.0, -2.0, 92.13269530801693, -1656.9077979353758, -2.0, -2.0, 93.17490739895725, -2.0, -2.0, 84.28905477760782, 65.54023141159686, -2.0, -2.0, 1.4712251385074226, 5100.947511734882, 1076.6746771650737, -2.0, -2.0, -2.0, -2.0, -1327.03355764087, -2.0, 1.7081841713321322, 94.50994477631056, -2.0, 95.74022419086668, 92.42520528865289, -2.0, -2.0, 352.2148777061211, -2.0, -2.0, -2.0, -2.0], "n_node_samples": [256, 8, 7, 1, 6, 3, 2, 1, 1, 1, 3, 1, 2, 1, 1, 1, 248, 247, 239, 230, 1, 229, 145, 1, 144, 141, 3, 84, 81, 2, 79, 3, 1, 2, 9, 2, 1, 1, 7, 6, 5, 2, 3, 1, 1, 8, 1, 7, 6, 1, 5, 2, 1, 1, 3, 2, 1, 1, 1]}, {"n_nodes": 39, "children_left": [1, -1, 3, 4, -1, -1, 7, 8, 9, 10, -1, -1, 13, -1, 15, 16, -1, -1, -1, 20, 21, 22, 23, -1, -1, 26, -1, -1, 29, -1, -1, -1, 33, 34, -1, 36, -1, -1, -1], "children_right": [2, -1, 6, 5, -1, -1, 32, 19, 12, 11, -1, -1, 14, -1, 18, 17, -1, -1, -1, 31, 28, 25, 24, -1, -1, 27, -1, -1, 30, -1, -1, -1, 38, 35, -1, 37, -1, -1, -1], "feature": [79, -2, 10, 89, -2, -2, 97, 11, 0, 110, -2, -2, 66, -2, 117, 68, -2, -2, -2, 70, 28, 34, 20, -2, -2, 52, -2, -2, 13, -2, -2, -2, 6, 76, -2, 112, -2, -2, -2], "threshold": [-1.0972636524109465, -2.0, -682.8276846747974, 90.4018393435524, -2.0, -2.0, 94.82649499309552, -0.6308288023019344, 1295.1779635591329, -50.39832186205234, -2.0, -2.0, -284.70119772930684, -2.0, 87.00385673670277, 2526.6737384748058, -2.0, -2.0, -2.0, 1386.0048029930354, 6236.541087883311, -256.53964943882994, 5755.895907752633, -2.0, -2.0, 4722.868307417198, -2.0, -2.0, 88.52120664972868, -2.0, -2.0, -2.0, 350.7284570255915, 2419.9331532655906, -2.0, 2552.3109854354107, -2.0, -2.0, -2.0], "n_node_samples": [256, 1, 255, 2, 1, 1, 253, 249, 14, 2, 1, 1, 12, 1, 11, 10, 8, 2, 1, 235, 234, 232, 5, 4, 1, 227, 225, 2, 2, 1, 1, 1, 4, 3, 1, 2, 1, 1, 1]}, {"n_nodes": 43, "children_left": [1, 2, -1, -1, 5, 6, 7, 8, 9, -1, -1, -1, -1, 14, -1, 16, 17, 18, -1, 20, -1, -1, -1, 24, 25, 26, -1, -1, 29, -1, -1, 32, 33, -1, -1, 36, -1, -1, 39, -1, 41, -1, -1], "children_right": [4, 3, -1, -1, 38, 13, 12, 11, 10, -1, -1, -1, -1, 15, -1, 23, 22, 19, -1, 21, -1, -1, -1, 31, 28, 27, -1, -1, 30, -1, -1, 35, 34, -1, -1, 37, -1, -1, 40, -1, 42, -1, -1], "feature": [74, 85, -2, -2, 108, 34, 56, 108, 33, -2, -2, -2, -2, 113, -2, 99, 38, 40, -2, 28, -2, -2, -2, 87, 7, 77, -2, -2, 4, -2, -2, 113, 23, -2, -2, 0, -2, -2, 80, -2, 49, -2, -2], "threshold": [-580.9257715991353, 93.51266913884909, -2.0, -2.0, 4317.928424585578, -466.5009583306969, 3222.263385028701, 2058.7546205174895, 87.3552031900525, -2.0, -2.0, -2.0, -2.0, 83.03867945635629, -2.0, -0.6139961721440759, 165.73424964665168, 977.2794579161701, -2.0, 1595.8832501423933, -2.0, -2.0, -2.0, 0.4118806218783746, -0.7881125108283538, 88.10883620200158, -2.0, -2.0, 4343.106205905371, -2.0, -2.0, 85.76881445654148, 0.424308979615713, -2.0, -2.0, 1651.6146199417367, -2.0, -2.0, 3303.699331667134, -2.0, 89.28125919368176, -2.0, -2.0], "n_node_samples": [256, 2, 1, 1, 254, 251, 4, 3, 2, 1, 1, 1, 1, 247, 1, 246, 11, 10, 1, 9, 1, 8, 1, 235, 222, 7, 5, 2, 215, 214, 1, 13, 5, 4, 1, 8, 6, 2, 3, 1, 2, 1, 1]}, {"n_nodes": 77, "children_left": [1, 2, 3, 4, 5, 6, -1, -1, 9, -1, 11, -1, 13, -1, -1, -1, 17, 18, 19, 20, 21, -1, -1, 24, -1, -1, 27, -1, 29, -1, -1, 32, 33, -1, 35, -1, -1, 38, -1, -1, 41, -1, 43, 44, -1, 46, -1, -1, -1, 50, 51, 52, 53, -1, 55, -1, -1, 58, -1, -1, -1, 62, 63, 64, -1, -1, 67, -1, -1, -1, 71, -1, 73, 74, -1, -1, -1], "children_right": [70, 49, 16, 15, 8, 7, -1, -1, 10, -1, 12, -1, 14, -1, -1, -1, 40, 31, 26, 23, 22, -1, -1, 25, -1, -1, 28, -1, 30, -1, -1, 37, 34, -1, 36, -1, -1, 39, -1, -1, 42, -1, 48, 45, -1, 47, -1, -1, -1, 61, 60, 57, 54, -1, 56, -1, -1, 59, -1, -1, -1, 69, 66, 65, -1, -1, 68, -1, -1, -1, 72, -1, 76, 75, -1, -1, -1], "feature": [113, 99, 67, 6, 68, 57, -2, -2, 2, -2, 27, -2, 73, -2, -2, -2, 27, 55, 39, 65, 28, -2, -2, 98, -2, -2, 57, -2, 82, -2, -2, 45, 110, -2, 54, -2, -2, 110, -2, -2, 49, -2, 97, 77, -2, 104, -2, -2, -2, 13, 58, 2, 50, -2, 11, -2, -2, 10, -2, -2, -2, 88, 50, 54, -2, -2, 18, -2, -2, -2, 17, -2, 24, 91, -2, -2, -2], "threshold": [95.23099217434925, 0.05457039645620165, -0.9275936255825654, 329.2716262984423, 1795.6102216218646, 87.26640635741242, -2.0, -2.0, -86.96337513903313, -2.0, -1.8832216234333914, -2.0, 84.56704688471139, -2.0, -2.0, -2.0, 0.7713218702801139, 0.8914630962030325, -0.6624272333748766, 90.30561864110902, 1515.3351333957794, -2.0, -2.0, 3.0821138047995618, -2.0, -2.0, 83.25335483404498, -2.0, -176.6080160553604, -2.0, -2.0, 90.84079582609273, -429.89636928490194, -2.0, 413.2742573536347, -2.0, -2.0, 30.69188404860528, -2.0, -2.0, 85.58715184246523, -2.0, 87.86632035526742, 85.44092989128126, -2.0, 2134.9540051910813, -2.0, -2.0, -2.0, 85.22799594804086, 394.90739719705067, 33.32789610853786, -48.99261679919093, -2.0, -0.6646059815141401, -2.0, -2.0, 133.122972740849, -2.0, -2.0, -2.0, 1703.0941752111978, 24.521214900781032, -8.607508604231993, -2.0, -2.0, -45.26234826876891, -2.0, -2.0, -2.0, 92.68001453004779, -2.0, 1749.7585316429654, 0.3875679445395097, -2.0, -2.0, -2.0], "n_node_samples": [256, 252, 241, 8, 7, 2, 1, 1, 5, 1, 4, 1, 3, 2, 1, 1, 233, 228, 215, 12, 10, 2, 8, 2, 1, 1, 203, 1, 202, 11, 191, 13, 11, 1, 10, 9, 1, 2, 1, 1, 5, 1, 4, 3, 1, 2, 1, 1, 1, 11, 6, 5, 3, 1, 2, 1, 1, 2, 1, 1, 1, 5, 4, 2, 1, 1, 2, 1, 1, 1, 4, 1, 3, 2, 1, 1, 1]}, {"n_nodes": 85, "children_left": [1, 2, 3, 4, 5, 6, 7, -1, -1, 10, -1, -1, 13, 14, 15, -1, -1, -1, 19, 20, -1, -1, -1, 24, 25, 26, 27, -1, -1, -1, 31, -1, -1, 34, 35, -1, 37, -1, -1, -1, 41, 42, -1, 44, -1, -1, -1, 48, 49, 50, 51, -1, 53, -1, -1, 56, 57, 58, -1, -1, 61, -1, -1, 64, 65, -1, -1, 68, -1, -1, -1, 72, -1, 74, 75, -1, -1, 78, -1, -1, 81, 82, -1, -1, -1], "children_right": [80, 47, 40, 23, 12, 9, 8, -1, -1, 11, -1, -1, 18, 17, 16, -1, -1, -1, 22, 21, -1, -1, -1, 33, 30, 29, 28, -1, -1, -1, 32, -1, -1, 39, 36, -1, 38, -1, -1, -1, 46, 43, -1, 45, -1, -1, -1, 71, 70, 55, 52, -1, 54, -1, -1, 63, 60, 59, -1, -1, 62, -1, -1, 67, 66, -1, -1, 69, -1, -1, -1, 73, -1, 77, 76, -1, -1, 79, -1, -1, 84, 83, -1, -1, -1], "feature": [50, 92, 40, 48, 21, 92, 98, -2, -2, 4, -2, -2, 97, 114, 73, -2, -2, -2, 84, 73, -2, -2, -2, 117, 56, 99, 101, -2, -2, -2, 54, -2, -2, 115, 92, -2, 58, -2, -2, -2, 117, 37, -2, 12, -2, -2, -2, 46, 109, 63, 116, -2, 46, -2, -2, 96, 73, 68, -2, -2, 90, -2, -2, 90, 67, -2, -2, 76, -2, -2, -2, 77, -2, 66, 69, -2, -2, 54, -2, -2, 50, 52, -2, -2, -2], "threshold": [1030.2272950220981, 1604.353484826327, 2734.9160382379387, 1250.6899233575398, 85.08197606917562, 931.0582324872064, -21.477785323037665, -2.0, -2.0, 1483.1844541505839, -2.0, -2.0, 87.87943591358113, 365.75640477880665, 86.59945406001036, -2.0, -2.0, -2.0, 2753.1171411271753, 88.87992946099487, -2.0, -2.0, -2.0, 90.50019251485364, 2399.7876046475894, 0.9201717702300156, 85.14252881572699, -2.0, -2.0, -2.0, 147.0925607686362, -2.0, -2.0, 0.5679623748026613, 1147.8262366451445, -2.0, -29.897091610774908, -2.0, -2.0, -2.0, 87.46278738997076, 84.99177027912427, -2.0, 3885.6650278017228, -2.0, -2.0, -2.0, 252.2542762701653, 95.39689438948263, -0.371474316050985, 2408.566669035501, -2.0, -5.355445650106034, -2.0, -2.0, 1702.4365729626438, 85.55682004967557, 1986.7745883519642, -2.0, -2.0, 285.735147355001, -2.0, -2.0, 911.0958459917902, -0.8886951291415353, -2.0, -2.0, 1426.485316675848, -2.0, -2.0, -2.0, 85.85626521467057, -2.0, -127.15107196716176, 86.77839959588759, -2.0, -2.0, 128.26687291416658, -2.0, -2.0, 1513.7804720833806, 5902.640646404885, -2.0, -2.0, -2.0], "n_node_samples": [256, 253, 88, 84, 47, 4, 2, 1, 1, 2, 1, 1, 43, 35, 34, 9, 25, 1, 8, 7, 5, 2, 1, 37, 33, 31, 30, 18, 12, 1, 2, 1, 1, 4, 3, 1, 2, 1, 1, 1, 4, 3, 1, 2, 1, 1, 1, 165, 160, 159, 3, 1, 2, 1, 1, 156, 12, 2, 1, 1, 10, 8, 2, 144, 142, 5, 137, 2, 1, 1, 1, 5, 1, 4, 2, 1, 1, 2, 1, 1, 3, 2, 1, 1, 1]}, {"n_nodes": 117, "children_left": [1, 2, 3, 4, -1, 6, 7, -1, 9, -1, -1, 12, -1, -1, 15, -1, -1, 18, -1, -1, 21, 22, 23, 24, 25, -1, 27, 28, -1, -1, 31, -1, -1, 34, 35, -1, 37, -1, -1, -1, 41, 42, 43, 44, -1, -1, 47, -1, -1, 50, 51, -1, -1, -1, 55, -1, 57, -1, -1, 60, 61, 62, -1, -1, -1, 66, -1, -1, 69, 70, 71, -1, 73, 74, -1, -1, 77, -1, -1, 80, 81, -1, -1, -1, 85, 86, 87, 88, 89, -1, -1, 92, -1, -1, -1, 96, -1, 98, 99, -1, -1, -1, 103, 104, -1, -1, 107, 108, 109, -1, -1, -1, 113, 114, -1, -1, -1], "children_right": [20, 17, 14, 5, -1, 11, 8, -1, 10, -1, -1, 13, -1, -1, 16, -1, -1, 19, -1, -1, 68, 59, 40, 33, 26, -1, 30, 29, -1, -1, 32, -1, -1, 39, 36, -1, 38, -1, -1, -1, 54, 49, 46, 45, -1, -1, 48, -1, -1, 53, 52, -1, -1, -1, 56, -1, 58, -1, -1, 65, 64, 63, -1, -1, -1, 67, -1, -1, 84, 79, 72, -1, 76, 75, -1, -1, 78, -1, -1, 83, 82, -1, -1, -1, 102, 95, 94, 91, 90, -1, -1, 93, -1, -1, -1, 97, -1, 101, 100, -1, -1, -1, 106, 105, -1, -1, 112, 111, 110, -1, -1, -1, 116, 115, -1, -1, -1], "feature": [79, 12, 33, 74, -2, 17, 0, -2, 66, -2, -2, 9, -2, -2, 97, -2, -2, 1, -2, -2, 44, 43, 100, 57, 112, -2, 39, 56, -2, -2, 28, -2, -2, 106, 114, -2, 29, -2, -2, -2, 21, 52, 64, 4, -2, -2, 41, -2, -2, 20, 92, -2, -2, -2, 44, -2, 33, -2, -2, 88, 109, 56, -2, -2, -2, 54, -2, -2, 4, 109, 44, -2, 113, 68, -2, -2, 40, -2, -2, 102, 104, -2, -2, -2, 113, 16, 36, 68, 114, -2, -2, 61, -2, -2, -2, 35, -2, 101, 95, -2, -2, -2, 87, 116, -2, -2, 1, 16, 92, -2, -2, -2, 68, 103, -2, -2, -2], "threshold": [-0.15331108409599925, 2702.31670644149, 90.52264657594387, -62.32734673252671, -2.0, 87.07742623988419, 1803.7165591994844, -2.0, -57.37985623226494, -2.0, -2.0, 90.40425863182371, -2.0, -2.0, 93.25745288341187, -2.0, -2.0, 93.95768638186048, -2.0, -2.0, 1825.6788519186334, 0.7178372767371299, 1068.7774332821264, 87.12275791499893, 760.157505325115, -2.0, -0.10042305993867251, 1647.5415109351936, -2.0, -2.0, 620.3999546516686, -2.0, -2.0, 51.86281193367337, -13.860055818622957, -2.0, 87.47206550299752, -2.0, -2.0, -2.0, 92.56489521384466, 1869.9818421313455, 1934.0906984890303, 1861.0201900568884, -2.0, -2.0, 85.52895271523342, -2.0, -2.0, 2371.862747952744, 1937.7698655662919, -2.0, -2.0, -2.0, 764.7436266759148, -2.0, 92.92256815774486, -2.0, -2.0, 1646.0071704578618, 87.60604893863483, 1185.564130842017, -2.0, -2.0, -2.0, 21.74926029972232, -2.0, -2.0, 998.8649846985307, 88.0796751510723, 1949.7837434926926, -2.0, 85.76859217126322, 2139.967896135509, -2.0, -2.0, 3537.5215684075474, -2.0, -2.0, -47.56613293316501, 3027.189095398965, -2.0, -2.0, -2.0, 87.17301042618836, 3106.8641443703623, 3607.7774171595356, 1440.7284544639888, 67.96687140360794, -2.0, -2.0, 86.92620524667493, -2.0, -2.0, -2.0, -0.5419265411523759, -2.0, 86.12994071847291, -0.7919294092766612, -2.0, -2.0, -2.0, -1.1312472825549764, 2197.30611481299, -2.0, -2.0, 93.36757567961122, 5117.6266969049475, 1624.5911681906277, -2.0, -2.0, -2.0, 2454.5334464779744, -0.8824251316871611, -2.0, -2.0, -2.0], "n_node_samples": [256, 10, 8, 6, 1, 5, 3, 1, 2, 1, 1, 2, 1, 1, 2, 1, 1, 2, 1, 1, 246, 95, 90, 35, 30, 1, 29, 2, 1, 1, 27, 1, 26, 5, 4, 1, 3, 1, 2, 1, 55, 52, 49, 45, 28, 17, 4, 1, 3, 3, 2, 1, 1, 1, 3, 1, 2, 1, 1, 5, 3, 2, 1, 1, 1, 2, 1, 1, 151, 8, 5, 1, 4, 2, 1, 1, 2, 1, 1, 3, 2, 1, 1, 1, 143, 118, 113, 112, 6, 2, 4, 106, 101, 5, 1, 5, 1, 4, 3, 1, 2, 1, 25, 2, 1, 1, 23, 17, 16, 3, 13, 1, 6, 5, 1, 4, 1]}, {"n_nodes": 107, "children_left": [1, 2, 3, -1, 5, 6, 7, 8, 9, -1, -1, 12, -1, -1, 15, 16, -1, -1, 19, -1, -1, 22, -1, 24, 25, -1, -1, 28, -1, -1, 31, 32, 33, 34, -1, -1, 37, -1, -1, 40, -1, -1, 43, 44, -1, 46, -1, -1, -1, 50, 51, -1, -1, -1, 55, 56, 57, 58, -1, 60, 61, -1, -1, -1, -1, 66, 67, 68, 69, 70, -1, -1, 73, -1, -1, 76, -1, 78, -1, -1, 81, -1, 83, 84, -1, -1, 87, -1, -1, 90, 91, -1, 93, -1, 95, -1, -1, 98, -1, 100, 101, -1, -1, 104, -1, -1, -1], "children_right": [54, 49, 4, -1, 30, 21, 14, 11, 10, -1, -1, 13, -1, -1, 18, 17, -1, -1, 20, -1, -1, 23, -1, 27, 26, -1, -1, 29, -1, -1, 42, 39, 36, 35, -1, -1, 38, -1, -1, 41, -1, -1, 48, 45, -1, 47, -1, -1, -1, 53, 52, -1, -1, -1, 106, 65, 64, 59, -1, 63, 62, -1, -1, -1, -1, 89, 80, 75, 72, 71, -1, -1, 74, -1, -1, 77, -1, 79, -1, -1, 82, -1, 86, 85, -1, -1, 88, -1, -1, 97, 92, -1, 94, -1, 96, -1, -1, 99, -1, 103, 102, -1, -1, 105, -1, -1, -1], "feature": [17, 111, 30, -2, 113, 76, 56, 66, 1, -2, -2, 68, -2, -2, 96, 14, -2, -2, 12, -2, -2, 76, -2, 100, 8, -2, -2, 16, -2, -2, 20, 87, 69, 14, -2, -2, 102, -2, -2, 110, -2, -2, 94, 66, -2, 115, -2, -2, -2, 17, 77, -2, -2, -2, 90, 111, 113, 46, -2, 0, 11, -2, -2, -2, -2, 41, 1, 112, 119, 57, -2, -2, 41, -2, -2, 50, -2, 70, -2, -2, 38, -2, 48, 18, -2, -2, 3, -2, -2, 60, 20, -2, 2, -2, 94, -2, -2, 108, -2, 118, 110, -2, -2, 39, -2, -2, -2], "threshold": [85.8652433091147, 0.7656182459395464, -1035.6435922503674, -2.0, 85.74583892326143, 2723.2868781193565, 2134.434997004194, 22.09668890065359, 85.18537753223691, -2.0, -2.0, 2470.555755428763, -2.0, -2.0, 1582.0835145335102, -45.092091142242815, -2.0, -2.0, 2624.799003344401, -2.0, -2.0, 2817.286046442709, -2.0, 2864.4641514967493, 2598.1035697628295, -2.0, -2.0, 2522.008682023738, -2.0, -2.0, 1916.2292889371652, 0.9361833547876139, 85.37440257397219, -354.3564329386486, -2.0, -2.0, 479.03261216824535, -2.0, -2.0, -5.675580079981863, -2.0, -2.0, 52.078327600880684, -144.83415213079851, -2.0, 0.9115127403808352, -2.0, -2.0, -2.0, 84.38831075904346, 84.86812219343527, -2.0, -2.0, -2.0, 847.5832156746569, -0.014011713682679394, 89.63924778282608, -377.24382080754435, -2.0, 2743.5299205130573, -0.3510694738249618, -2.0, -2.0, -2.0, -2.0, 91.98913641133771, 89.64438054833765, 2582.3150764570178, -0.2239863440506097, 85.79215145613632, -2.0, -2.0, 87.66263674137305, -2.0, -2.0, -66.28611155007319, -2.0, 416.24718084197826, -2.0, -2.0, -288.179017407903, -2.0, 1623.2655889411762, -47.86716919572426, -2.0, -2.0, -0.39846378024595963, -2.0, -2.0, 2346.1427268838243, 1295.5295129416181, -2.0, 32.76756245259548, -2.0, 9.940961879184918, -2.0, -2.0, 2209.258410235056, -2.0, 14.304125952210335, -54.862708377122274, -2.0, -2.0, -0.004693581724862339, -2.0, -2.0, -2.0], "n_node_samples": [256, 106, 103, 1, 102, 77, 72, 27, 20, 19, 1, 7, 6, 1, 45, 3, 2, 1, 42, 33, 9, 5, 1, 4, 2, 1, 1, 2, 1, 1, 25, 20, 18, 3, 1, 2, 15, 13, 2, 2, 1, 1, 5, 4, 1, 3, 2, 1, 1, 3, 2, 1, 1, 1, 150, 149, 5, 4, 1, 3, 2, 1, 1, 1, 1, 144, 135, 118, 104, 3, 1, 2, 101, 82, 19, 14, 1, 13, 11, 2, 17, 1, 16, 4, 2, 2, 12, 1, 11, 9, 4, 1, 3, 1, 2, 1, 1, 5, 1, 4, 2, 1, 1, 2, 1, 1, 1]}, {"n_nodes": 87, "children_left": [1, 2, 3, 4, 5, 6, 7, -1, -1, 10, -1, -1, 13, -1, 15, 16, -1, -1, -1, 20, 21, 22, -1, -1, 25, 26, -1, -1, 29, -1, -1, 32, -1, 34, -1, -1, -1, 38, -1, 40, 41, 42, -1, -1, 45, 46, -1, -1, 49, 50, -1, -1, -1, -1, 55, -1, 57, 58, 59, 60, -1, -1, 63, -1, 65, 66, -1, -1, -1, -1, 71, -1, 73, 74, 75, 76, -1, -1, -1, 80, 81, -1, -1, -1, 85, -1, -1], "children_right": [54, 37, 36, 19, 12, 9, 8, -1, -1, 11, -1, -1, 14, -1, 18, 17, -1, -1, -1, 31, 24, 23, -1, -1, 28, 27, -1, -1, 30, -1, -1, 33, -1, 35, -1, -1, -1, 39, -1, 53, 44, 43, -1, -1, 48, 47, -1, -1, 52, 51, -1, -1, -1, -1, 56, -1, 70, 69, 62, 61, -1, -1, 64, -1, 68, 67, -1, -1, -1, -1, 72, -1, 84, 79, 78, 77, -1, -1, -1, 83, 82, -1, -1, -1, 86, -1, -1], "feature": [64, 31, 52, 83, 34, 41, 48, -2, -2, 98, -2, -2, 117, -2, 113, 46, -2, -2, -2, 4, 86, 57, -2, -2, 13, 114, -2, -2, 101, -2, -2, 63, -2, 76, -2, -2, -2, 50, -2, 8, 71, 62, -2, -2, 112, 96, -2, -2, 106, 49, -2, -2, -2, -2, 18, -2, 93, 57, 55, 16, -2, -2, 66, -2, 3, 102, -2, -2, -2, -2, 31, -2, 61, 28, 52, 116, -2, -2, -2, 116, 66, -2, -2, -2, 5, -2, -2], "threshold": [2458.0432412205464, 0.26952291199449574, 3354.1624969221475, -0.9622064768160723, 13.915463169065987, 87.60836622938903, 1587.0510710133478, -2.0, -2.0, -6.866369128165007, -2.0, -2.0, 85.81176589513746, -2.0, 87.94561966692359, 209.63237284525874, -2.0, -2.0, -2.0, 3231.666507017178, -696.9876278852987, 86.63689119351884, -2.0, -2.0, 86.40296502011034, 257.65961095954276, -2.0, -2.0, 94.96915222609842, -2.0, -2.0, -0.7985635519952343, -2.0, 900.7632107486777, -2.0, -2.0, -2.0, -195.65094913106918, -2.0, 2210.959403135329, -0.31913161525462364, -32.78866941518554, -2.0, -2.0, 1247.3407404717714, 912.6029244901626, -2.0, -2.0, 84.2569534137179, 89.26161180448793, -2.0, -2.0, -2.0, -2.0, -520.1742724330043, -2.0, 84.63416649849813, 85.49871935299538, -0.160352402907029, 2970.8447537165343, -2.0, -2.0, -125.71597470469585, -2.0, 0.7888162987254635, -93.59443190674969, -2.0, -2.0, -2.0, -2.0, -0.901877465612198, -2.0, 90.87780163757401, 3779.123398137336, 3442.8497440604724, 4090.1579933488547, -2.0, -2.0, -2.0, 2453.0372061236003, -9.16235545750817, -2.0, -2.0, -2.0, 92.80725414064119, -2.0, -2.0], "n_node_samples": [256, 197, 185, 184, 8, 4, 2, 1, 1, 2, 1, 1, 4, 1, 3, 2, 1, 1, 1, 176, 173, 2, 1, 1, 171, 118, 114, 4, 53, 51, 2, 3, 1, 2, 1, 1, 1, 12, 1, 11, 10, 2, 1, 1, 8, 2, 1, 1, 6, 5, 3, 2, 1, 1, 59, 1, 58, 14, 13, 2, 1, 1, 11, 1, 10, 9, 2, 7, 1, 1, 44, 1, 43, 41, 37, 36, 35, 1, 1, 4, 3, 1, 2, 1, 2, 1, 1]}, {"n_nodes": 61, "children_left": [1, -1, 3, 4, 5, 6, 7, -1, 9, -1, -1, 12, -1, 14, 15, -1, -1, 18, -1, -1, 21, 22, 23, -1, -1, -1, 27, -1, 29, -1, -1, 32, 33, 34, 35, -1, 37, -1, -1, -1, 41, -1, 43, -1, 45, -1, -1, 48, -1, 50, -1, 52, 53, -1, -1, -1, 57, -1, 59, -1, -1], "children_right": [2, -1, 56, 31, 20, 11, 8, -1, 10, -1, -1, 13, -1, 17, 16, -1, -1, 19, -1, -1, 26, 25, 24, -1, -1, -1, 28, -1, 30, -1, -1, 47, 40, 39, 36, -1, 38, -1, -1, -1, 42, -1, 44, -1, 46, -1, -1, 49, -1, 51, -1, 55, 54, -1, -1, -1, 58, -1, 60, -1, -1], "feature": [3, -2, 92, 34, 74, 82, 101, -2, 2, -2, -2, 90, -2, 89, 92, -2, -2, 68, -2, -2, 117, 102, 108, -2, -2, -2, 69, -2, 36, -2, -2, 41, 15, 12, 102, -2, 41, -2, -2, -2, 43, -2, 41, -2, 95, -2, -2, 6, -2, 46, -2, 54, 82, -2, -2, -2, 5, -2, 81, -2, -2], "threshold": [-1.4163785592729126, -2.0, 3394.582688160978, -188.81759764944093, 134.2886172692704, -70.3512325227965, 86.18227589325154, -2.0, -26.8696430939574, -2.0, -2.0, -98.72082739496642, -2.0, 86.97596198924629, 2197.939443743294, -2.0, -2.0, 913.5347719674626, -2.0, -2.0, 87.89418844501218, 113.5593703675826, 1825.4727877031419, -2.0, -2.0, -2.0, 89.86679110343884, -2.0, 943.4009301794697, -2.0, -2.0, 89.57646682140253, 0.20975099187798385, 3700.2108530365913, -790.4870689765024, -2.0, 83.0949411886255, -2.0, -2.0, -2.0, -0.9143180884021884, -2.0, 84.84705429470495, -2.0, 0.2614734951692976, -2.0, -2.0, -960.4668733912831, -2.0, -803.893943421959, -2.0, 596.1109325755904, 143.2061704724124, -2.0, -2.0, -2.0, 85.96982631551559, -2.0, 93.31777354949982, -2.0, -2.0], "n_node_samples": [256, 1, 255, 252, 15, 9, 3, 1, 2, 1, 1, 6, 1, 5, 3, 2, 1, 2, 1, 1, 6, 3, 2, 1, 1, 1, 3, 1, 2, 1, 1, 237, 206, 199, 198, 1, 197, 2, 195, 1, 7, 1, 6, 1, 5, 4, 1, 31, 1, 30, 1, 29, 28, 27, 1, 1, 3, 1, 2, 1, 1]}, {"n_nodes": 63, "children_left": [1, 2, 3, -1, 5, 6, 7, -1, 9, 10, -1, -1, -1, 14, 15, -1, 17, -1, -1, 20, 21, -1, -1, 24, -1, -1, 27, 28, 29, 30, -1, -1, -1, 34, -1, 36, -1, -1, 39, 40, -1, -1, 43, -1, -1, 46, 47, 48, 49, 50, -1, -1, -1, -1, 55, -1, 57, -1, 59, -1, -1, -1, -1], "children_right": [62, 45, 4, -1, 26, 13, 8, -1, 12, 11, -1, -1, -1, 19, 16, -1, 18, -1, -1, 23, 22, -1, -1, 25, -1, -1, 38, 33, 32, 31, -1, -1, -1, 35, -1, 37, -1, -1, 42, 41, -1, -1, 44, -1, -1, 61, 54, 53, 52, 51, -1, -1, -1, -1, 56, -1, 58, -1, 60, -1, -1, -1, -1], "feature": [16, 42, 63, -2, 32, 50, 110, -2, 52, 16, -2, -2, -2, 112, 112, -2, 90, -2, -2, 8, 82, -2, -2, 96, -2, -2, 109, 90, 118, 41, -2, -2, -2, 51, -2, 84, -2, -2, 108, 46, -2, -2, 65, -2, -2, 80, 86, 56, 6, 24, -2, -2, -2, -2, 86, -2, 55, -2, 99, -2, -2, -2, -2], "threshold": [4500.392474930451, 237.4514179776662, -1.3247219157985979, -2.0, 1432.8003877181561, -48.97104896417402, -204.70294978455777, -2.0, 996.9739162325737, 1688.1763287927845, -2.0, -2.0, -2.0, 1287.2638205556495, 515.5098321873274, -2.0, 185.86069490288412, -2.0, -2.0, 1742.5744295681707, -1104.1714076284186, -2.0, -2.0, 1989.1477289796564, -2.0, -2.0, 93.99231548560425, -52.21301600533218, 300.1441375138909, 88.53983162275507, -2.0, -2.0, -2.0, -1.3311041231877656, -2.0, 2053.5647356922573, -2.0, -2.0, 2528.553325588607, -740.0880143437944, -2.0, -2.0, 94.4831728080675, -2.0, -2.0, 4038.7898348592175, -2.0262582735280787, 2302.642097203826, -15.947509633818413, 853.6176759836346, -2.0, -2.0, -2.0, -2.0, 13.340436048032918, -2.0, -0.9141731098825918, -2.0, 1.1418294390392627, -2.0, -2.0, -2.0, -2.0], "n_node_samples": [256, 255, 246, 1, 245, 74, 10, 1, 9, 8, 7, 1, 1, 64, 38, 1, 37, 36, 1, 26, 21, 1, 20, 5, 3, 2, 171, 167, 26, 25, 24, 1, 1, 141, 1, 140, 59, 81, 4, 2, 1, 1, 2, 1, 1, 9, 8, 4, 3, 2, 1, 1, 1, 1, 4, 1, 3, 1, 2, 1, 1, 1, 1]}, {"n_nodes": 35, "children_left": [1, 2, 3, -1, -1, 6, 7, 8, -1, 10, 11, 12, -1, -1, -1, 16, 17, -1, -1, 20, -1, -1, 23, -1, 25, -1, 27, 28, -1, -1, -1, 32, -1, -1, -1], "children_right": [34, 5, 4, -1, -1, 31, 22, 9, -1, 15, 14, 13, -1, -1, -1, 19, 18, -1, -1, 21, -1, -1, 24, -1, 26, -1, 30, 29, -1, -1, -1, 33, -1, -1, -1], "feature": [19, 34, 80, -2, -2, 112, 87, 62, -2, 85, 56, 54, -2, -2, -2, 53, 16, -2, -2, 5, -2, -2, 77, -2, 104, -2, 98, 98, -2, -2, -2, 89, -2, -2, -2], "threshold": [1.727360361594409, -610.9235565019414, 2252.9761226260925, -2.0, -2.0, 3821.526919333044, 0.21523680082300523, -1329.8183439438317, -2.0, 83.61772212321765, 1381.395225353723, -20.99881087709163, -2.0, -2.0, -2.0, 90.15029330372359, 5369.991487147283, -2.0, -2.0, 92.0914665032604, -2.0, -2.0, 83.28687664879806, -2.0, 1272.145047240958, -2.0, 363.00785634899876, -7.693976848709383, -2.0, -2.0, -2.0, 87.51513504400623, -2.0, -2.0, -2.0], "n_node_samples": [256, 255, 2, 1, 1, 253, 251, 246, 1, 245, 3, 2, 1, 1, 1, 242, 215, 214, 1, 27, 17, 10, 5, 1, 4, 1, 3, 2, 1, 1, 1, 2, 1, 1, 1]}, {"n_nodes": 109, "children_left": [1, 2, 3, 4, -1, 6, -1, -1, 9, -1, 11, 12, 13, 14, -1, -1, -1, 18, 19, -1, -1, -1, 23, 24, 25, -1, -1, 28, -1, -1, 31, 32, -1, -1, -1, 36, 37, 38, 39, 40, 41, -1, -1, -1, 45, 46, -1, -1, -1, 50, -1, 52, 53, -1, -1, 56, -1, -1, 59, -1, -1, 62, 63, -1, 65, -1, 67, 68, -1, -1, -1, 72, 73, -1, -1, -1, 77, 78, 79, 80, 81, 82, 83, -1, -1, -1, 87, 88, -1, -1, -1, 92, -1, 94, 95, -1, -1, -1, 99, -1, 101, 102, -1, -1, -1, 106, -1, -1, -1], "children_right": [76, 35, 8, 5, -1, 7, -1, -1, 10, -1, 22, 17, 16, 15, -1, -1, -1, 21, 20, -1, -1, -1, 30, 27, 26, -1, -1, 29, -1, -1, 34, 33, -1, -1, -1, 61, 58, 49, 44, 43, 42, -1, -1, -1, 48, 47, -1, -1, -1, 51, -1, 55, 54, -1, -1, 57, -1, -1, 60, -1, -1, 71, 64, -1, 66, -1, 70, 69, -1, -1, -1, 75, 74, -1, -1, -1, 108, 105, 98, 91, 86, 85, 84, -1, -1, -1, 90, 89, -1, -1, -1, 93, -1, 97, 96, -1, -1, -1, 100, -1, 104, 103, -1, -1, -1, 107, -1, -1, -1], "feature": [48, 2, 28, 118, -2, 58, -2, -2, 36, -2, 36, 35, 116, 2, -2, -2, -2, 113, 28, -2, -2, -2, 97, 59, 106, -2, -2, 81, -2, -2, 34, 43, -2, -2, -2, 84, 44, 89, 117, 30, 2, -2, -2, -2, 44, 77, -2, -2, -2, 62, -2, 36, 8, -2, -2, 53, -2, -2, 22, -2, -2, 74, 71, -2, 56, -2, 76, 8, -2, -2, -2, 108, 108, -2, -2, -2, 26, 15, 13, 2, 109, 62, 90, -2, -2, -2, 85, 68, -2, -2, -2, 35, -2, 119, 8, -2, -2, -2, 30, -2, 26, 16, -2, -2, -2, 73, -2, -2, -2], "threshold": [2612.609834247087, 50.36560686741291, 710.3829521510671, -10.858687456165761, -2.0, 138.01875165105739, -2.0, -2.0, 758.2224631538719, -2.0, 1683.024416515615, 0.035702657436813556, 4547.578105926317, -378.03577791482013, -2.0, -2.0, -2.0, 86.19992449888956, 1438.9377445704013, -2.0, -2.0, -2.0, 90.99407947109736, -0.6796582446804542, 49.712800153397396, -2.0, -2.0, 83.9500494836597, -2.0, -2.0, 205.38821086631538, -0.16715948384588564, -2.0, -2.0, -2.0, 1630.2572659427567, 1670.1890644855746, 86.1308867419748, 86.33418854295006, -30.870421548313658, 79.75244682876041, -2.0, -2.0, -2.0, 1305.5858855552906, 85.20709770182478, -2.0, -2.0, -2.0, -84.52815574385605, -2.0, 948.3620662928382, 1006.230155143994, -2.0, -2.0, 87.83179402436679, -2.0, -2.0, 46.708220918526976, -2.0, -2.0, 66.76917086996565, -0.8767660734601161, -2.0, 718.6859232870331, -2.0, 2553.770572595657, 2012.8660971982713, -2.0, -2.0, -2.0, 2185.362470911053, 2062.0219589541766, -2.0, -2.0, -2.0, 647.5082394310778, 0.30172819518564653, 88.50620324421031, -27.51104655466557, 85.87624285271217, 3.90686650150775, 39.57243538953943, -2.0, -2.0, -2.0, 87.26046775107294, 4485.5909224146, -2.0, -2.0, -2.0, -0.07972919711830517, -2.0, 0.2650682280143109, 2893.336971315712, -2.0, -2.0, -2.0, 166.68777982782944, -2.0, 305.5771411320088, 1450.4218327679773, -2.0, -2.0, -2.0, 89.98923824354505, -2.0, -2.0, -2.0], "n_node_samples": [256, 215, 181, 3, 1, 2, 1, 1, 178, 1, 177, 84, 81, 80, 1, 79, 1, 3, 2, 1, 1, 1, 93, 77, 2, 1, 1, 75, 1, 74, 16, 15, 2, 13, 1, 34, 16, 14, 6, 3, 2, 1, 1, 1, 3, 2, 1, 1, 1, 8, 1, 7, 4, 1, 3, 3, 1, 2, 2, 1, 1, 18, 15, 1, 14, 1, 13, 12, 8, 4, 1, 3, 2, 1, 1, 1, 41, 40, 38, 34, 8, 3, 2, 1, 1, 1, 5, 4, 3, 1, 1, 26, 1, 25, 24, 20, 4, 1, 4, 1, 3, 2, 1, 1, 1, 2, 1, 1, 1]}, {"n_nodes": 85, "children_left": [1, 2, 3, 4, 5, 6, 7, 8, -1, -1, 11, -1, -1, 14, 15, -1, -1, -1, -1, -1, 21, 22, 23, 24, -1, -1, 27, 28, -1, -1, 31, -1, -1, 34, 35, -1, 37, -1, -1, -1, 41, -1, -1, 44, -1, -1, 47, 48, -1, 50, -1, -1, 53, 54, 55, 56, -1, 58, 59, -1, -1, -1, 63, 64, 65, -1, -1, -1, 69, -1, -1, 72, -1, 74, -1, 76, -1, 78, -1, -1, 81, -1, 83, -1, -1], "children_right": [46, 43, 20, 19, 18, 13, 10, 9, -1, -1, 12, -1, -1, 17, 16, -1, -1, -1, -1, -1, 40, 33, 26, 25, -1, -1, 30, 29, -1, -1, 32, -1, -1, 39, 36, -1, 38, -1, -1, -1, 42, -1, -1, 45, -1, -1, 52, 49, -1, 51, -1, -1, 80, 71, 62, 57, -1, 61, 60, -1, -1, -1, 68, 67, 66, -1, -1, -1, 70, -1, -1, 73, -1, 75, -1, 77, -1, 79, -1, -1, 82, -1, 84, -1, -1], "feature": [45, 16, 16, 11, 14, 6, 69, 9, -2, -2, 61, -2, -2, 72, 58, -2, -2, -2, -2, -2, 2, 41, 117, 12, -2, -2, 1, 118, -2, -2, 12, -2, -2, 15, 58, -2, 23, -2, -2, -2, 14, -2, -2, 60, -2, -2, 44, 36, -2, 102, -2, -2, 69, 32, 25, 116, -2, 91, 26, -2, -2, -2, 5, 116, 77, -2, -2, -2, 21, -2, -2, 27, -2, 99, -2, 74, -2, 36, -2, -2, 0, -2, 10, -2, -2], "threshold": [90.39773894958093, 3909.5398602124956, 872.5264907374635, 0.7657759649519696, 26.37088333320378, 36.78098056268925, 87.08699452555133, 86.45855004175499, -2.0, -2.0, 89.983208329409, -2.0, -2.0, 1478.8459782143336, -280.7389850899293, -2.0, -2.0, -2.0, -2.0, -2.0, 604.3301712266775, 86.39771824860838, 83.19399319598172, 2145.0812072367785, -2.0, -2.0, 86.03135852470592, 222.8328253430468, -2.0, -2.0, 1806.41811030005, -2.0, -2.0, 0.013765968854430044, -1769.6653996932625, -2.0, 0.34583610871147186, -2.0, -2.0, -2.0, -502.66043139186706, -2.0, -2.0, 2766.0492803594325, -2.0, -2.0, 1020.4042351718081, 932.8087434828323, -2.0, 39.26813287533267, -2.0, -2.0, 95.40142523003809, 2012.4906229304572, 91.61615597531951, 1376.3484959268703, -2.0, 1.8489540898469063, -15.100308732642006, -2.0, -2.0, -2.0, 93.97777108521097, 2415.879351276848, 92.35079726406876, -2.0, -2.0, -2.0, 93.02382196626805, -2.0, -2.0, -0.8034925422647468, -2.0, -1.3245202020390519, -2.0, -147.57597600555792, -2.0, 2092.4098345830153, -2.0, -2.0, 930.9443938680665, -2.0, 155.6196939701306, -2.0, -2.0], "n_node_samples": [256, 219, 217, 31, 30, 29, 26, 17, 9, 8, 9, 8, 1, 3, 2, 1, 1, 1, 1, 1, 186, 184, 136, 2, 1, 1, 134, 128, 125, 3, 6, 4, 2, 48, 47, 1, 46, 44, 2, 1, 2, 1, 1, 2, 1, 1, 37, 3, 1, 2, 1, 1, 34, 31, 11, 6, 1, 5, 4, 1, 3, 1, 5, 3, 2, 1, 1, 1, 2, 1, 1, 20, 1, 19, 1, 18, 1, 17, 4, 13, 3, 1, 2, 1, 1]}, {"n_nodes": 81, "children_left": [1, 2, 3, 4, 5, 6, 7, 8, -1, -1, 11, -1, -1, -1, -1, 16, 17, 18, 19, -1, -1, -1, 23, 24, -1, -1, -1, 28, 29, 30, -1, -1, -1, 34, 35, -1, -1, 38, -1, -1, 41, 42, 43, 44, 45, -1, -1, 48, -1, -1, 51, 52, -1, -1, 55, -1, -1, 58, 59, -1, -1, 62, 63, -1, -1, 66, -1, -1, 69, -1, 71, -1, -1, 74, 75, -1, -1, 78, -1, -1, -1], "children_right": [80, 73, 40, 15, 14, 13, 10, 9, -1, -1, 12, -1, -1, -1, -1, 27, 22, 21, 20, -1, -1, -1, 26, 25, -1, -1, -1, 33, 32, 31, -1, -1, -1, 37, 36, -1, -1, 39, -1, -1, 68, 57, 50, 47, 46, -1, -1, 49, -1, -1, 54, 53, -1, -1, 56, -1, -1, 61, 60, -1, -1, 65, 64, -1, -1, 67, -1, -1, 70, -1, 72, -1, -1, 77, 76, -1, -1, 79, -1, -1, -1], "feature": [60, 25, 5, 5, 98, 83, 55, 2, -2, -2, 105, -2, -2, -2, -2, 93, 113, 18, 45, -2, -2, -2, 63, 104, -2, -2, -2, 98, 94, 63, -2, -2, -2, 70, 82, -2, -2, 15, -2, -2, 67, 1, 76, 36, 12, -2, -2, 22, -2, -2, 6, 118, -2, -2, 60, -2, -2, 13, 34, -2, -2, 116, 43, -2, -2, 56, -2, -2, 94, -2, 77, -2, -2, 60, 6, -2, -2, 62, -2, -2, -2], "threshold": [5962.2988021286665, 95.43566780930183, 85.22954352257287, 84.36909920134075, 625.3653381510476, 0.9366233180913252, 0.5096043276179602, -105.84433208771252, -2.0, -2.0, 85.76424417261232, -2.0, -2.0, -2.0, -2.0, 84.23434677824115, 84.12030380876749, 20.175224790896863, 84.99833906581549, -2.0, -2.0, -2.0, 0.9241241197679769, 1661.5131439573659, -2.0, -2.0, -2.0, -109.95555142264607, 283.82265495547216, 0.804729307910767, -2.0, -2.0, -2.0, -240.94734011168933, 67.25417903729443, -2.0, -2.0, -0.05941223868141521, -2.0, -2.0, 0.801074783225113, 90.24885711830522, 2576.000768084545, 3268.900057450356, 3425.801335305349, -2.0, -2.0, 757.2195802485661, -2.0, -2.0, 24.183977626815427, -156.86210630641418, -2.0, -2.0, 2469.2549404964107, -2.0, -2.0, 90.19167238296554, -99.27441895253696, -2.0, -2.0, 1780.043220706304, 0.39044644655214933, -2.0, -2.0, 2298.310072302963, -2.0, -2.0, -47.928873899359665, -2.0, 89.54612593517923, -2.0, -2.0, 2325.290162804206, 474.7238377228956, -2.0, -2.0, 22.61595573025567, -2.0, -2.0, -2.0], "n_node_samples": [256, 255, 251, 94, 28, 27, 26, 22, 3, 19, 4, 2, 2, 1, 1, 66, 10, 4, 3, 2, 1, 1, 6, 5, 1, 4, 1, 56, 5, 4, 3, 1, 1, 51, 3, 2, 1, 48, 1, 47, 157, 154, 129, 121, 119, 116, 3, 2, 1, 1, 8, 5, 2, 3, 3, 1, 2, 25, 2, 1, 1, 23, 10, 9, 1, 13, 4, 9, 3, 1, 2, 1, 1, 4, 2, 1, 1, 2, 1, 1, 1]}, {"n_nodes": 53, "children_left": [1, 2, -1, 4, 5, 6, 7, -1, -1, 10, 11, -1, -1, 14, 15, -1, -1, 18, -1, -1, 21, 22, -1, -1, -1, 26, -1, 28, -1, 30, 31, 32, -1, -1, 35, -1, -1, -1, 39, 40, 41, -1, -1, -1, 45, -1, 47, 48, -1, -1, 51, -1, -1], "children_right": [38, 3, -1, 25, 20, 9, 8, -1, -1, 13, 12, -1, -1, 17, 16, -1, -1, 19, -1, -1, 24, 23, -1, -1, -1, 27, -1, 29, -1, 37, 34, 33, -1, -1, 36, -1, -1, -1, 44, 43, 42, -1, -1, -1, 46, -1, 50, 49, -1, -1, 52, -1, -1], "feature": [10, 71, -2, 95, 5, 84, 36, -2, -2, 16, 4, -2, -2, 69, 52, -2, -2, 114, -2, -2, 37, 57, -2, -2, -2, 118, -2, 83, -2, 47, 51, 35, -2, -2, 58, -2, -2, -2, 28, 72, 62, -2, -2, -2, 69, -2, 98, 101, -2, -2, 88, -2, -2], "threshold": [407.18980287815907, -1.9807160529218224, -2.0, -0.857645060800782, 87.24532986397172, 1198.3869160629747, 1866.9966803272239, -2.0, -2.0, 2398.839722009767, 1788.6475401467865, -2.0, -2.0, 85.20177195603111, 2400.1127836099417, -2.0, -2.0, 2.6504008442398166, -2.0, -2.0, 94.28151461355459, 89.16966422142912, -2.0, -2.0, -2.0, -912.6916361924688, -2.0, -1.9433299610127368, -2.0, 1.7959340530428727, 0.9737985259731294, 0.40836460907401717, -2.0, -2.0, 375.88951996382764, -2.0, -2.0, -2.0, 1966.8552256020976, 2924.340472389171, 21.971672219676744, -2.0, -2.0, -2.0, 85.44909291921607, -2.0, -58.68091303234962, 87.15605248192142, -2.0, -2.0, 2750.7201642686127, -2.0, -2.0], "n_node_samples": [256, 248, 1, 247, 12, 9, 2, 1, 1, 7, 2, 1, 1, 5, 3, 1, 2, 2, 1, 1, 3, 2, 1, 1, 1, 235, 1, 234, 1, 233, 232, 223, 215, 8, 9, 7, 2, 1, 8, 3, 2, 1, 1, 1, 5, 1, 4, 2, 1, 1, 2, 1, 1]}, {"n_nodes": 67, "children_left": [1, -1, 3, 4, 5, 6, 7, 8, -1, 10, -1, -1, 13, 14, -1, -1, 17, -1, -1, 20, 21, 22, -1, -1, -1, 26, 27, -1, -1, 30, -1, -1, -1, -1, 35, -1, 37, 38, 39, 40, 41, -1, -1, 44, -1, -1, -1, 48, 49, 50, -1, -1, 53, -1, -1, 56, -1, -1, 59, 60, -1, 62, -1, 64, -1, -1, -1], "children_right": [2, -1, 34, 33, 32, 19, 12, 9, -1, 11, -1, -1, 16, 15, -1, -1, 18, -1, -1, 25, 24, 23, -1, -1, -1, 29, 28, -1, -1, 31, -1, -1, -1, -1, 36, -1, 58, 47, 46, 43, 42, -1, -1, 45, -1, -1, -1, 55, 52, 51, -1, -1, 54, -1, -1, 57, -1, -1, 66, 61, -1, 63, -1, 65, -1, -1, -1], "feature": [35, -2, 85, 92, 4, 13, 97, 41, -2, 77, -2, -2, 65, 18, -2, -2, 53, -2, -2, 15, 0, 96, -2, -2, -2, 28, 31, -2, -2, 66, -2, -2, -2, -2, 119, -2, 42, 4, 38, 113, 45, -2, -2, 22, -2, -2, -2, 1, 75, 60, -2, -2, 34, -2, -2, 52, -2, -2, 100, 11, -2, 110, -2, 79, -2, -2, -2], "threshold": [-1.9670659880931796, -2.0, 87.21752458122444, 3943.236808513867, 4957.960674235579, 84.22310717460844, 84.85960964945127, 83.5664018520929, -2.0, 84.17407580752581, -2.0, -2.0, 84.39332028822662, -412.51018554973894, -2.0, -2.0, 84.42513777335414, -2.0, -2.0, -0.8510950626112033, 3121.8139469469033, 2515.520406802893, -2.0, -2.0, -2.0, 2070.8913310812277, -0.12076636921650097, -2.0, -2.0, 1027.2101220591971, -2.0, -2.0, -2.0, -2.0, -0.334261270861263, -2.0, -3.5709172382817087, 2271.1665163180633, 445.6370199358263, 89.9775551454991, 88.02057186794494, -2.0, -2.0, -111.9769800947872, -2.0, -2.0, -2.0, 93.41092258478092, -0.5681946955473138, 3396.096560874999, -2.0, -2.0, -22.169493958898585, -2.0, -2.0, 2362.230817959751, -2.0, -2.0, 3589.6265205278187, -0.41506800680191624, -2.0, -131.71823119079613, -2.0, 0.30275592873932605, -2.0, -2.0, -2.0], "n_node_samples": [256, 1, 255, 205, 204, 203, 33, 5, 1, 4, 3, 1, 28, 5, 1, 4, 23, 1, 22, 170, 4, 3, 2, 1, 1, 166, 93, 5, 88, 73, 72, 1, 1, 1, 50, 1, 49, 19, 12, 11, 5, 4, 1, 6, 1, 5, 1, 7, 5, 2, 1, 1, 3, 1, 2, 2, 1, 1, 30, 29, 1, 28, 1, 27, 26, 1, 1]}, {"n_nodes": 73, "children_left": [1, 2, 3, 4, 5, -1, 7, 8, 9, -1, -1, 12, -1, -1, -1, 16, 17, 18, -1, -1, 21, -1, -1, 24, -1, 26, 27, -1, -1, 30, -1, -1, 33, 34, -1, -1, 37, 38, 39, -1, -1, -1, 43, 44, -1, -1, 47, -1, -1, 50, 51, 52, -1, -1, -1, 56, 57, -1, 59, 60, -1, 62, -1, -1, 65, -1, 67, -1, -1, -1, 71, -1, -1], "children_right": [70, 49, 32, 15, 6, -1, 14, 11, 10, -1, -1, 13, -1, -1, -1, 23, 20, 19, -1, -1, 22, -1, -1, 25, -1, 29, 28, -1, -1, 31, -1, -1, 36, 35, -1, -1, 42, 41, 40, -1, -1, -1, 46, 45, -1, -1, 48, -1, -1, 55, 54, 53, -1, -1, -1, 69, 58, -1, 64, 61, -1, 63, -1, -1, 66, -1, 68, -1, -1, -1, 72, -1, -1], "feature": [39, 99, 23, 109, 50, -2, 74, 51, 56, -2, -2, 5, -2, -2, -2, 105, 0, 89, -2, -2, 28, -2, -2, 1, -2, 104, 5, -2, -2, 119, -2, -2, 79, 104, -2, -2, 10, 90, 101, -2, -2, -2, 110, 46, -2, -2, 46, -2, -2, 0, 84, 97, -2, -2, -2, 1, 35, -2, 73, 92, -2, 32, -2, -2, 76, -2, 75, -2, -2, -2, 80, -2, -2], "threshold": [0.6480171292312522, 0.4723371171729347, 0.415968199454233, 93.37455755862155, -1755.0992116830773, -2.0, 542.9016214645942, 0.27265198588029116, 1682.2418940212774, -2.0, -2.0, 85.96798659393936, -2.0, -2.0, -2.0, 94.16408416450214, 1483.8208366016954, 93.28684615217468, -2.0, -2.0, 2381.580914086933, -2.0, -2.0, 92.74263062735211, -2.0, 2428.101423755801, 94.59398627495113, -2.0, -2.0, -0.6194220006556352, -2.0, -2.0, -0.15250471613952177, 2423.971428885577, -2.0, -2.0, 30.7073371097014, 179.7722340485883, 85.56662805218558, -2.0, -2.0, -2.0, -33.17002882397269, -193.55309966139174, -2.0, -2.0, -50.41803996191268, -2.0, -2.0, 1223.2563074474485, 2400.2463960471778, 94.42797690044529, -2.0, -2.0, -2.0, 86.03838208598941, -0.8461308157286285, -2.0, 84.6370932942429, 1939.3591618693245, -2.0, 2019.8435047347302, -2.0, -2.0, 1478.9027338046128, -2.0, 0.9043126981259848, -2.0, -2.0, -2.0, 1685.9037974853552, -2.0, -2.0], "n_node_samples": [256, 254, 243, 234, 224, 1, 223, 222, 217, 82, 135, 5, 3, 2, 1, 10, 4, 2, 1, 1, 2, 1, 1, 6, 1, 5, 3, 2, 1, 2, 1, 1, 9, 2, 1, 1, 7, 3, 2, 1, 1, 1, 4, 2, 1, 1, 2, 1, 1, 11, 3, 2, 1, 1, 1, 8, 7, 1, 6, 3, 1, 2, 1, 1, 3, 1, 2, 1, 1, 1, 2, 1, 1]}, {"n_nodes": 75, "children_left": [1, 2, 3, 4, 5, 6, 7, -1, -1, 10, 11, -1, -1, 14, -1, -1, -1, 18, -1, 20, -1, 22, 23, -1, -1, -1, 27, 28, 29, 30, -1, -1, 33, -1, -1, -1, 37, 38, -1, -1, 41, -1, -1, 44, 45, 46, -1, -1, -1, 50, 51, 52, 53, -1, 55, -1, -1, -1, -1, 60, 61, -1, -1, -1, 65, 66, 67, -1, -1, -1, 71, 72, -1, -1, -1], "children_right": [64, 43, 26, 17, 16, 9, 8, -1, -1, 13, 12, -1, -1, 15, -1, -1, -1, 19, -1, 21, -1, 25, 24, -1, -1, -1, 36, 35, 32, 31, -1, -1, 34, -1, -1, -1, 40, 39, -1, -1, 42, -1, -1, 49, 48, 47, -1, -1, -1, 59, 58, 57, 54, -1, 56, -1, -1, -1, -1, 63, 62, -1, -1, -1, 70, 69, 68, -1, -1, -1, 74, 73, -1, -1, -1], "feature": [39, 60, 108, 51, 99, 108, 6, -2, -2, 68, 7, -2, -2, 113, -2, -2, -2, 58, -2, 14, -2, 41, 46, -2, -2, -2, 9, 97, 65, 20, -2, -2, 50, -2, -2, -2, 85, 12, -2, -2, 102, -2, -2, 10, 67, 64, -2, -2, -2, 84, 2, 116, 4, -2, 42, -2, -2, -2, -2, 6, 80, -2, -2, -2, 49, 48, 83, -2, -2, -2, 42, 8, -2, -2, -2], "threshold": [0.48349912068038203, 2832.0656275595843, 3267.792598710299, 0.37463824049320005, 1.527472210362308, 641.7471911538146, -27.066488018756026, -2.0, -2.0, 1733.1331059998522, 0.2891903874879658, -2.0, -2.0, 93.2449788857461, -2.0, -2.0, -2.0, -3.891609448423427, -2.0, -81.51172728301572, -2.0, 85.48294300561908, 9.61519846814461, -2.0, -2.0, -2.0, 87.02766837553479, 86.58874375912768, 83.21794097135678, 1423.1311188745924, -2.0, -2.0, -63.50375064346183, -2.0, -2.0, -2.0, 91.8627202240111, 2071.5203837470713, -2.0, -2.0, 144.485250596183, -2.0, -2.0, -9.22475076570396, 0.475121466198527, 2583.8628313280005, -2.0, -2.0, -2.0, 3813.643394592052, 61.96263823330525, 2842.948441265127, 2657.459881399041, -2.0, 14.450548610859805, -2.0, -2.0, -2.0, -2.0, 8.870448865867429, 6005.32903333303, -2.0, -2.0, -2.0, 85.80110200019605, 2050.3305869471887, 0.011682098271177195, -2.0, -2.0, -2.0, 2.9625700148579526, 2694.432139887676, -2.0, -2.0, -2.0], "n_node_samples": [256, 250, 237, 228, 223, 222, 2, 1, 1, 220, 97, 93, 4, 123, 121, 2, 1, 5, 1, 4, 1, 3, 2, 1, 1, 1, 9, 5, 4, 2, 1, 1, 2, 1, 1, 1, 4, 2, 1, 1, 2, 1, 1, 13, 3, 2, 1, 1, 1, 10, 7, 6, 5, 1, 4, 1, 3, 1, 1, 3, 2, 1, 1, 1, 6, 3, 2, 1, 1, 1, 3, 2, 1, 1, 1]}, {"n_nodes": 41, "children_left": [1, 2, -1, 4, 5, 6, 7, -1, 9, 10, -1, -1, -1, 14, -1, 16, 17, -1, -1, 20, -1, -1, -1, 24, -1, 26, -1, -1, 29, 30, 31, -1, -1, 34, -1, -1, 37, 38, -1, -1, -1], "children_right": [28, 3, -1, 23, 22, 13, 8, -1, 12, 11, -1, -1, -1, 15, -1, 19, 18, -1, -1, 21, -1, -1, -1, 25, -1, 27, -1, -1, 36, 33, 32, -1, -1, 35, -1, -1, 40, 39, -1, -1, -1], "feature": [91, 83, -2, 113, 63, 73, 102, -2, 21, 0, -2, -2, -2, 15, -2, 34, 48, -2, -2, 0, -2, -2, -2, 65, -2, 72, -2, -2, 50, 57, 88, -2, -2, 18, -2, -2, 100, 45, -2, -2, -2], "threshold": [0.3234683747046945, -1.2412391701905239, -2.0, 94.049140179087, 0.9072970067650532, 90.99947557970857, -1478.5325695474319, -2.0, 90.21623944454652, 2783.4429054402017, -2.0, -2.0, -2.0, -0.8374389879579838, -2.0, -0.0530684930519385, 2318.2936266401284, -2.0, -2.0, 1717.976159208443, -2.0, -2.0, -2.0, 95.71772696018112, -2.0, 2370.740179188894, -2.0, -2.0, -22.09783175126546, 84.93278183831497, 1257.485629772062, -2.0, -2.0, 132.50963837304602, -2.0, -2.0, 3473.17033331756, 87.55984278189011, -2.0, -2.0, -2.0], "n_node_samples": [256, 249, 1, 248, 245, 244, 228, 1, 227, 226, 211, 15, 1, 16, 1, 15, 7, 5, 2, 8, 3, 5, 1, 3, 1, 2, 1, 1, 7, 4, 2, 1, 1, 2, 1, 1, 3, 2, 1, 1, 1]}, {"n_nodes": 91, "children_left": [1, 2, 3, 4, 5, 6, 7, 8, -1, -1, 11, -1, -1, 14, -1, -1, 17, -1, 19, 20, -1, -1, -1, 24, 25, -1, 27, 28, -1, -1, 31, -1, -1, 34, -1, 36, 37, -1, -1, 40, -1, -1, 43, -1, -1, 46, 47, 48, 49, 50, -1, -1, -1, 54, 55, -1, -1, 58, 59, -1, -1, -1, 63, -1, -1, -1, 67, -1, 69, 70, 71, -1, 73, -1, 75, 76, -1, -1, -1, 80, 81, 82, -1, -1, 85, -1, 87, -1, -1, -1, -1], "children_right": [66, 45, 42, 23, 16, 13, 10, 9, -1, -1, 12, -1, -1, 15, -1, -1, 18, -1, 22, 21, -1, -1, -1, 33, 26, -1, 30, 29, -1, -1, 32, -1, -1, 35, -1, 39, 38, -1, -1, 41, -1, -1, 44, -1, -1, 65, 62, 53, 52, 51, -1, -1, -1, 57, 56, -1, -1, 61, 60, -1, -1, -1, 64, -1, -1, -1, 68, -1, 90, 79, 72, -1, 74, -1, 78, 77, -1, -1, -1, 89, 84, 83, -1, -1, 86, -1, 88, -1, -1, -1, -1], "feature": [13, 41, 92, 13, 35, 113, 43, 82, -2, -2, 33, -2, -2, 40, -2, -2, 54, -2, 38, 102, -2, -2, -2, 97, 1, -2, 82, 62, -2, -2, 81, -2, -2, 13, -2, 101, 80, -2, -2, 116, -2, -2, 79, -2, -2, 44, 8, 96, 108, 34, -2, -2, -2, 104, 44, -2, -2, 60, 37, -2, -2, -2, 116, -2, -2, -2, 7, -2, 76, 97, 87, -2, 108, -2, 34, 51, -2, -2, -2, 90, 85, 98, -2, -2, 84, -2, 12, -2, -2, -2, -2], "threshold": [92.0146248000742, 90.2302579759761, 5708.900025323918, 87.47755641698724, 0.558497696909354, 88.45263462162234, -0.23012487926991887, 204.5586677545489, -2.0, -2.0, 86.31845663409608, -2.0, -2.0, 1146.1218707901994, -2.0, -2.0, -512.6725430459122, -2.0, 247.4318604559786, -11.542647186919417, -2.0, -2.0, -2.0, 88.41204272136653, 87.50211904593841, -2.0, 33.44398081043921, 89.81929576062564, -2.0, -2.0, 87.74830445821783, -2.0, -2.0, 88.25103238981731, -2.0, 90.44408837307435, 2009.8891660184083, -2.0, -2.0, 1779.7189249218063, -2.0, -2.0, 0.07396828060688837, -2.0, -2.0, 6932.650042862934, 2326.8734545246107, 1217.1042545205469, 1818.5874979792104, -62.944897987854155, -2.0, -2.0, -2.0, 1799.4941166939652, 1499.879340757094, -2.0, -2.0, 2590.2992302627763, 93.74460733297495, -2.0, -2.0, -2.0, 2637.9323794264033, -2.0, -2.0, -2.0, -0.19932909458844417, -2.0, 3012.2213709332145, 92.4215346688505, -0.6152697217721816, -2.0, 1639.485450556262, -2.0, -2.299957710923607, -0.4158485030829202, -2.0, -2.0, -2.0, 26.956086874919052, 95.48492732340699, 24.821416060822745, -2.0, -2.0, 2247.5439458524547, -2.0, 3450.5824046212165, -2.0, -2.0, -2.0, -2.0], "n_node_samples": [256, 243, 228, 226, 208, 203, 201, 5, 4, 1, 196, 143, 53, 2, 1, 1, 5, 1, 4, 3, 2, 1, 1, 18, 12, 1, 11, 7, 6, 1, 4, 1, 3, 6, 1, 5, 2, 1, 1, 3, 1, 2, 2, 1, 1, 15, 14, 12, 3, 2, 1, 1, 1, 9, 2, 1, 1, 7, 6, 4, 2, 1, 2, 1, 1, 1, 13, 1, 12, 11, 5, 1, 4, 1, 3, 2, 1, 1, 1, 6, 5, 2, 1, 1, 3, 1, 2, 1, 1, 1, 1]}, {"n_nodes": 69, "children_left": [1, -1, 3, 4, 5, 6, 7, -1, 9, 10, -1, -1, 13, -1, -1, 16, 17, 18, -1, -1, 21, -1, -1, 24, 25, -1, -1, -1, 29, 30, 31, -1, -1, 34, 35, -1, -1, 38, -1, -1, -1, 42, 43, 44, 45, 46, -1, -1, 49, -1, -1, 52, -1, -1, -1, 56, 57, -1, 59, 60, -1, -1, -1, -1, 65, 66, -1, -1, -1], "children_right": [2, -1, 64, 41, 28, 15, 8, -1, 12, 11, -1, -1, 14, -1, -1, 23, 20, 19, -1, -1, 22, -1, -1, 27, 26, -1, -1, -1, 40, 33, 32, -1, -1, 37, 36, -1, -1, 39, -1, -1, -1, 55, 54, 51, 48, 47, -1, -1, 50, -1, -1, 53, -1, -1, -1, 63, 58, -1, 62, 61, -1, -1, -1, -1, 68, 67, -1, -1, -1], "feature": [10, -2, 116, 0, 3, 110, 8, -2, 14, 41, -2, -2, 34, -2, -2, 24, 52, 86, -2, -2, 40, -2, -2, 8, 25, -2, -2, -2, 73, 55, 56, -2, -2, 92, 93, -2, -2, 45, -2, -2, -2, 33, 63, 112, 64, 37, -2, -2, 1, -2, -2, 88, -2, -2, -2, 8, 3, -2, 12, 87, -2, -2, -2, -2, 27, 33, -2, -2, -2], "threshold": [-1756.4011583828374, -2.0, 3243.0676800464594, 1780.390455497145, 0.6314968763065976, -388.88831187313804, 808.8026062859234, -2.0, 8.934616266253691, 91.51189902215819, -2.0, -2.0, 326.12112982064536, -2.0, -2.0, 1581.0435906532423, 2020.9926537722315, -761.5232004460521, -2.0, -2.0, 1594.9966093348323, -2.0, -2.0, 2062.86113125871, 90.94360801388677, -2.0, -2.0, -2.0, 87.93658099273992, -0.8685615704714141, 2203.9689512797486, -2.0, -2.0, 2574.8052401760615, 86.10100622200454, -2.0, -2.0, 85.55736637234565, -2.0, -2.0, -2.0, 85.44253438219546, 0.09525972562621335, 2890.601832900011, 2527.156446470952, 84.0313996174519, -2.0, -2.0, 85.15150801425405, -2.0, -2.0, 2838.8885647863563, -2.0, -2.0, -2.0, 3608.1574015259544, -1.9994012261738074, -2.0, 3013.841487158016, 0.6738364732236772, -2.0, -2.0, -2.0, -2.0, 0.441757789087369, 91.43762775204965, -2.0, -2.0, -2.0], "n_node_samples": [256, 1, 255, 252, 104, 96, 5, 1, 4, 2, 1, 1, 2, 1, 1, 91, 66, 63, 1, 62, 3, 2, 1, 25, 24, 22, 2, 1, 8, 7, 2, 1, 1, 5, 3, 2, 1, 2, 1, 1, 1, 148, 77, 76, 74, 51, 23, 28, 23, 21, 2, 2, 1, 1, 1, 71, 70, 1, 69, 68, 66, 2, 1, 1, 3, 2, 1, 1, 1]}, {"n_nodes": 115, "children_left": [1, 2, 3, 4, 5, 6, 7, 8, -1, -1, 11, -1, -1, 14, -1, 16, -1, -1, 19, 20, -1, 22, -1, -1, -1, -1, -1, 28, 29, 30, 31, 32, 33, -1, -1, 36, -1, -1, 39, 40, -1, -1, 43, -1, -1, 46, 47, -1, 49, -1, -1, 52, 53, -1, -1, 56, -1, -1, -1, 60, 61, 62, 63, 64, -1, -1, 67, -1, -1, 70, 71, -1, -1, 74, -1, -1, -1, -1, 79, -1, 81, -1, 83, 84, 85, 86, 87, -1, -1, 90, -1, -1, 93, -1, 95, -1, -1, 98, -1, -1, 101, 102, 103, 104, -1, -1, 107, -1, -1, 110, -1, -1, 113, -1, -1], "children_right": [78, 27, 26, 25, 18, 13, 10, 9, -1, -1, 12, -1, -1, 15, -1, 17, -1, -1, 24, 21, -1, 23, -1, -1, -1, -1, -1, 59, 58, 45, 38, 35, 34, -1, -1, 37, -1, -1, 42, 41, -1, -1, 44, -1, -1, 51, 48, -1, 50, -1, -1, 55, 54, -1, -1, 57, -1, -1, -1, 77, 76, 69, 66, 65, -1, -1, 68, -1, -1, 73, 72, -1, -1, 75, -1, -1, -1, -1, 80, -1, 82, -1, 100, 97, 92, 89, 88, -1, -1, 91, -1, -1, 94, -1, 96, -1, -1, 99, -1, -1, 112, 109, 106, 105, -1, -1, 108, -1, -1, 111, -1, -1, 114, -1, -1], "feature": [73, 88, 89, 18, 41, 22, 46, 93, -2, -2, 49, -2, -2, 74, -2, 32, -2, -2, 12, 10, -2, 57, -2, -2, -2, -2, -2, 108, 78, 52, 104, 98, 111, -2, -2, 96, -2, -2, 28, 67, -2, -2, 57, -2, -2, 33, 80, -2, 62, -2, -2, 58, 86, -2, -2, 24, -2, -2, -2, 114, 68, 20, 90, 76, -2, -2, 106, -2, -2, 37, 14, -2, -2, 38, -2, -2, -2, -2, 66, -2, 75, -2, 13, 66, 97, 96, 46, -2, -2, 78, -2, -2, 17, -2, 92, -2, -2, 34, -2, -2, 7, 16, 26, 21, -2, -2, 92, -2, -2, 86, -2, -2, 55, -2, -2], "threshold": [90.95739266646905, 1107.300270243222, 89.05128435979191, 272.2858694723276, 86.1290754126986, 61.89174913842777, 253.08673316663442, 83.2017227971003, -2.0, -2.0, 85.27922028735243, -2.0, -2.0, -113.18958490443862, -2.0, 2807.7671030241845, -2.0, -2.0, 1669.7370886694348, -217.12550683185714, -2.0, 87.14558030997662, -2.0, -2.0, -2.0, -2.0, -2.0, 2119.536907098972, 567.729333977089, 1998.4571091781636, 1069.4812943555794, -83.94525294143023, 0.48118750447462655, -2.0, -2.0, 1079.2446856960862, -2.0, -2.0, 1327.0562623259873, 0.497636820421385, -2.0, -2.0, 87.37295807263486, -2.0, -2.0, 90.0476685851103, 1305.7421299529924, -2.0, -544.8558787358254, -2.0, -2.0, -55.95633997207337, -50.90071239969726, -2.0, -2.0, 3508.9241049638595, -2.0, -2.0, -2.0, 224.35736565587922, 4723.184370058674, 1015.8683286755664, 118.79364319881131, 1946.554324161985, -2.0, -2.0, 54.91474601529294, -2.0, -2.0, 84.50420656823749, -183.768734306455, -2.0, -2.0, 731.9007231913977, -2.0, -2.0, -2.0, -2.0, -1033.2876006305626, -2.0, -0.4972312559826445, -2.0, 91.94327080619674, 845.7546923513314, 91.12337811157265, 1256.953214489833, -75.66510089936907, -2.0, -2.0, 6.877139400633581, -2.0, -2.0, 90.14818762296261, -2.0, 837.5029330037082, -2.0, -2.0, 81.33221981550204, -2.0, -2.0, 0.5423674297250656, 2388.6899071925736, -58.448225643694514, 92.33278939329684, -2.0, -2.0, 1716.2661546367528, -2.0, -2.0, -11.853258869542394, -2.0, -2.0, -0.31958933329190564, -2.0, -2.0], "n_node_samples": [256, 222, 56, 55, 54, 28, 25, 23, 1, 22, 2, 1, 1, 3, 1, 2, 1, 1, 26, 25, 1, 24, 18, 6, 1, 1, 1, 166, 86, 85, 48, 9, 5, 4, 1, 4, 2, 2, 39, 18, 16, 2, 21, 20, 1, 37, 33, 1, 32, 2, 30, 4, 2, 1, 1, 2, 1, 1, 1, 80, 79, 78, 4, 2, 1, 1, 2, 1, 1, 74, 19, 2, 17, 55, 54, 1, 1, 1, 34, 1, 33, 1, 32, 18, 16, 12, 3, 1, 2, 9, 3, 6, 4, 1, 3, 1, 2, 2, 1, 1, 14, 12, 10, 3, 2, 1, 7, 1, 6, 2, 1, 1, 2, 1, 1]}, {"n_nodes": 63, "children_left": [1, 2, 3, 4, 5, -1, 7, 8, 9, -1, -1, 12, -1, -1, -1, 16, -1, 18, 19, 20, -1, -1, -1, 24, 25, -1, -1, 28, -1, -1, 31, -1, 33, 34, -1, 36, 37, -1, -1, -1, 41, -1, -1, 44, 45, -1, -1, 48, -1, 50, -1, 52, 53, -1, 55, -1, -1, -1, 59, -1, 61, -1, -1], "children_right": [58, 43, 30, 15, 6, -1, 14, 11, 10, -1, -1, 13, -1, -1, -1, 17, -1, 23, 22, 21, -1, -1, -1, 27, 26, -1, -1, 29, -1, -1, 32, -1, 40, 35, -1, 39, 38, -1, -1, -1, 42, -1, -1, 47, 46, -1, -1, 49, -1, 51, -1, 57, 54, -1, 56, -1, -1, -1, 60, -1, 62, -1, -1], "feature": [94, 41, 71, 106, 37, -2, 38, 66, 93, -2, -2, 97, -2, -2, -2, 31, -2, 34, 61, 42, -2, -2, -2, 11, 10, -2, -2, 98, -2, -2, 82, -2, 85, 28, -2, 95, 116, -2, -2, -2, 42, -2, -2, 65, 53, -2, -2, 77, -2, 119, -2, 118, 106, -2, 105, -2, -2, -2, 81, -2, 64, -2, -2], "threshold": [673.1955744578481, 93.35855778742514, 0.5287482005212214, -70.87177230085786, 84.05445012406187, -2.0, 1471.4548953079875, 788.0967701198983, 88.63139685924696, -2.0, -2.0, 88.31470744466162, -2.0, -2.0, -2.0, -1.7171050108583201, -2.0, -247.73146405617308, 86.53098401545127, -63.04591921765633, -2.0, -2.0, -2.0, -1.2355804383920415, -130.88482107961775, -2.0, -2.0, 415.4499543395127, -2.0, -2.0, -117.16320634827167, -2.0, 90.0333311665027, 793.7024336223036, -2.0, 0.2253278806923553, 1489.5572841840599, -2.0, -2.0, -2.0, 340.45248728545965, -2.0, -2.0, 93.1278745318427, 93.69055745270595, -2.0, -2.0, 92.91787440372532, -2.0, -0.24368402652613996, -2.0, 62.423576387774006, -109.29475476187409, -2.0, 94.6311723006103, -2.0, -2.0, -2.0, 87.88494059112153, -2.0, 968.8408418450695, -2.0, -2.0], "n_node_samples": [256, 253, 244, 233, 35, 1, 34, 33, 30, 25, 5, 3, 1, 2, 1, 198, 1, 197, 3, 2, 1, 1, 1, 194, 2, 1, 1, 192, 190, 2, 11, 1, 10, 8, 1, 7, 6, 1, 5, 1, 2, 1, 1, 9, 2, 1, 1, 7, 1, 6, 1, 5, 4, 1, 3, 2, 1, 1, 3, 1, 2, 1, 1]}, {"n_nodes": 99, "children_left": [1, 2, 3, 4, 5, 6, 7, -1, 9, -1, -1, 12, 13, -1, -1, 16, -1, -1, 19, 20, 21, -1, -1, 24, -1, -1, 27, -1, -1, 30, 31, -1, -1, -1, -1, 36, 37, 38, 39, 40, -1, -1, 43, 44, -1, -1, 47, -1, -1, 50, 51, -1, 53, -1, -1, 56, 57, -1, -1, 60, -1, -1, 63, 64, 65, 66, -1, -1, 69, -1, -1, 72, 73, -1, -1, 76, -1, -1, 79, 80, -1, 82, -1, -1, -1, 86, -1, 88, 89, -1, -1, 92, 93, -1, -1, -1, 97, -1, -1], "children_right": [96, 35, 34, 29, 18, 11, 8, -1, 10, -1, -1, 15, 14, -1, -1, 17, -1, -1, 26, 23, 22, -1, -1, 25, -1, -1, 28, -1, -1, 33, 32, -1, -1, -1, -1, 85, 62, 49, 42, 41, -1, -1, 46, 45, -1, -1, 48, -1, -1, 55, 52, -1, 54, -1, -1, 59, 58, -1, -1, 61, -1, -1, 78, 71, 68, 67, -1, -1, 70, -1, -1, 75, 74, -1, -1, 77, -1, -1, 84, 81, -1, 83, -1, -1, -1, 87, -1, 91, 90, -1, -1, 95, 94, -1, -1, -1, 98, -1, -1], "feature": [28, 0, 53, 14, 28, 98, 26, -2, 117, -2, -2, 25, 32, -2, -2, 49, -2, -2, 10, 116, 12, -2, -2, 117, -2, -2, 78, -2, -2, 29, 102, -2, -2, -2, -2, 3, 16, 14, 40, 81, -2, -2, 89, 13, -2, -2, 81, -2, -2, 89, 85, -2, 62, -2, -2, 92, 18, -2, -2, 114, -2, -2, 101, 72, 104, 61, -2, -2, 40, -2, -2, 67, 118, -2, -2, 24, -2, -2, 71, 111, -2, 70, -2, -2, -2, 63, -2, 2, 92, -2, -2, 100, 22, -2, -2, -2, 48, -2, -2], "threshold": [4464.1355547025505, 1677.29282404496, 95.90162465344258, 356.1774011990882, 907.9778019511037, -29.836110352462185, -32.21254574843336, -2.0, 88.70899602664122, -2.0, -2.0, 87.61871260712795, 837.1438603699877, -2.0, -2.0, 89.37752415862751, -2.0, -2.0, 359.71775823585585, 3023.9951688689157, 1904.8347816331475, -2.0, -2.0, 89.63423152809693, -2.0, -2.0, 100.66106257618455, -2.0, -2.0, 87.45096159142021, -18.745431410030193, -2.0, -2.0, -2.0, -2.0, 0.9998462093061982, 2133.927325044725, -122.41203333456633, 869.1313753305615, 88.34164769637475, -2.0, -2.0, 86.66584818468702, 86.88580048358338, -2.0, -2.0, 88.0394325619747, -2.0, -2.0, 90.20352050997481, 83.4475999509206, -2.0, -732.1411751718917, -2.0, -2.0, 2036.6541975991122, -7.801109603513549, -2.0, -2.0, 47.699077148316, -2.0, -2.0, 88.55613331382914, 1923.7071694846763, 1651.8802038700692, 88.6830461950428, -2.0, -2.0, 2054.553132910073, -2.0, -2.0, -0.5318912945370615, -237.37951923691645, -2.0, -2.0, 1877.2894931790836, -2.0, -2.0, 0.7283245272600671, -0.3969093316220256, -2.0, -14.741217166064875, -2.0, -2.0, -2.0, -0.7701035415614506, -2.0, 39.28906975420614, 1900.7025569173054, -2.0, -2.0, 3840.976818567131, 17.40950359469722, -2.0, -2.0, -2.0, 3873.676876933629, -2.0, -2.0], "n_node_samples": [256, 254, 104, 103, 100, 44, 10, 1, 9, 8, 1, 34, 28, 17, 11, 6, 4, 2, 56, 54, 51, 50, 1, 3, 1, 2, 2, 1, 1, 3, 2, 1, 1, 1, 1, 150, 144, 60, 12, 2, 1, 1, 10, 6, 4, 2, 4, 2, 2, 48, 44, 1, 43, 1, 42, 4, 2, 1, 1, 2, 1, 1, 84, 77, 12, 3, 2, 1, 9, 7, 2, 65, 3, 1, 2, 62, 1, 61, 7, 6, 1, 5, 1, 4, 1, 6, 1, 5, 2, 1, 1, 3, 2, 1, 1, 1, 2, 1, 1]}, {"n_nodes": 49, "children_left": [1, -1, 3, 4, 5, 6, 7, 8, 9, -1, -1, 12, -1, -1, 15, 16, -1, -1, 19, -1, -1, -1, -1, 24, -1, 26, 27, 28, -1, 30, -1, -1, -1, -1, 35, 36, 37, -1, 39, -1, 41, -1, -1, 44, -1, -1, 47, -1, -1], "children_right": [2, -1, 34, 23, 22, 21, 14, 11, 10, -1, -1, 13, -1, -1, 18, 17, -1, -1, 20, -1, -1, -1, -1, 25, -1, 33, 32, 29, -1, 31, -1, -1, -1, -1, 46, 43, 38, -1, 40, -1, 42, -1, -1, 45, -1, -1, 48, -1, -1], "feature": [38, -2, 79, 27, 34, 76, 53, 40, 54, -2, -2, 106, -2, -2, 92, 21, -2, -2, 10, -2, -2, -2, -2, 118, -2, 88, 73, 66, -2, 104, -2, -2, -2, -2, 61, 53, 86, -2, 88, -2, 84, -2, -2, 13, -2, -2, 73, -2, -2], "threshold": [-629.8834732816944, -2.0, 0.4513304631464792, 0.44261229617642806, 746.8253671633197, 5831.527091623064, 86.7148700904636, 3248.127988766007, 849.6714072808024, -2.0, -2.0, -82.1481611151938, -2.0, -2.0, 1553.8089172373566, 87.30624383376271, -2.0, -2.0, 351.7442686910481, -2.0, -2.0, -2.0, -2.0, -742.127916921921, -2.0, 2293.2879921432063, 90.4074901963619, -125.93972505067462, -2.0, 1697.4421949286211, -2.0, -2.0, -2.0, -2.0, 90.35079931158144, 89.95702116515349, -67.74974509596348, -2.0, 1363.799633221142, -2.0, 1632.6769246243298, -2.0, -2.0, 88.48152281925154, -2.0, -2.0, 92.50874878024159, -2.0, -2.0], "n_node_samples": [256, 1, 255, 247, 238, 237, 236, 148, 146, 145, 1, 2, 1, 1, 88, 48, 30, 18, 40, 39, 1, 1, 1, 9, 1, 8, 7, 6, 1, 5, 1, 4, 1, 1, 8, 6, 4, 1, 3, 1, 2, 1, 1, 2, 1, 1, 2, 1, 1]}, {"n_nodes": 69, "children_left": [1, 2, 3, 4, 5, 6, 7, 8, -1, -1, 11, -1, -1, -1, -1, 16, -1, 18, -1, -1, -1, -1, 23, -1, 25, 26, 27, 28, 29, -1, -1, 32, 33, -1, -1, 36, -1, -1, 39, 40, 41, -1, -1, -1, -1, 46, 47, 48, -1, 50, -1, -1, 53, 54, -1, -1, 57, -1, -1, 60, -1, -1, 63, 64, 65, -1, -1, -1, -1], "children_right": [22, 21, 20, 15, 14, 13, 10, 9, -1, -1, 12, -1, -1, -1, -1, 17, -1, 19, -1, -1, -1, -1, 24, -1, 62, 45, 38, 31, 30, -1, -1, 35, 34, -1, -1, 37, -1, -1, 44, 43, 42, -1, -1, -1, -1, 59, 52, 49, -1, 51, -1, -1, 56, 55, -1, -1, 58, -1, -1, 61, -1, -1, 68, 67, 66, -1, -1, -1, -1], "feature": [66, 8, 74, 80, 11, 37, 19, 21, -2, -2, 106, -2, -2, -2, -2, 40, -2, 87, -2, -2, -2, -2, 118, -2, 74, 89, 57, 38, 53, -2, -2, 42, 10, -2, -2, 4, -2, -2, 11, 17, 9, -2, -2, -2, -2, 44, 15, 14, -2, 109, -2, -2, 117, 12, -2, -2, 58, -2, -2, 118, -2, -2, 2, 46, 73, -2, -2, -2, -2], "threshold": [-31.216916812684758, 6412.25523283717, 326.2865855406442, 3474.504176811084, 1.74045795423, 92.89323826362065, 0.5344497736238174, 86.43450230566529, -2.0, -2.0, 133.00394619908366, -2.0, -2.0, -2.0, -2.0, 4235.8031386541215, -2.0, -0.7255653113711464, -2.0, -2.0, -2.0, -2.0, -929.4103946734268, -2.0, 301.8294371151501, 85.63691271731486, 85.06201467339974, -142.53592481768501, 84.65315399116518, -2.0, -2.0, -43.85128286660243, -17.516836978735792, -2.0, -2.0, 2502.2430354418434, -2.0, -2.0, 0.1277302080428835, 86.60158805763423, 85.17414595893311, -2.0, -2.0, -2.0, -2.0, 3712.9080742070955, -0.7368850217838236, -170.51397950039896, -2.0, 85.79913336029236, -2.0, -2.0, 88.47046537532958, 610.6314392525849, -2.0, -2.0, 549.688798237447, -2.0, -2.0, -45.6911123053595, -2.0, -2.0, 212.0576312314056, 84.42962349319347, 90.19544993117239, -2.0, -2.0, -2.0, -2.0], "n_node_samples": [256, 71, 70, 69, 66, 65, 64, 62, 44, 18, 2, 1, 1, 1, 1, 3, 1, 2, 1, 1, 1, 1, 185, 1, 184, 180, 66, 57, 2, 1, 1, 55, 7, 1, 6, 48, 28, 20, 9, 8, 7, 1, 6, 1, 1, 114, 112, 5, 1, 4, 1, 3, 107, 82, 1, 81, 25, 24, 1, 2, 1, 1, 4, 3, 2, 1, 1, 1, 1]}, {"n_nodes": 101, "children_left": [1, 2, 3, 4, 5, 6, 7, 8, -1, -1, 11, -1, -1, 14, 15, -1, -1, 18, -1, -1, 21, 22, 23, -1, -1, 26, -1, -1, 29, -1, -1, 32, -1, 34, -1, -1, 37, 38, 39, -1, -1, 42, 43, -1, -1, -1, 47, 48, 49, -1, -1, -1, 53, -1, -1, -1, 57, 58, -1, 60, -1, -1, 63, 64, -1, -1, 67, 68, 69, 70, 71, -1, -1, -1, 75, 76, -1, -1, -1, 80, 81, 82, -1, -1, 85, -1, -1, 88, -1, 90, -1, -1, 93, -1, 95, -1, 97, -1, 99, -1, -1], "children_right": [56, 55, 36, 31, 20, 13, 10, 9, -1, -1, 12, -1, -1, 17, 16, -1, -1, 19, -1, -1, 28, 25, 24, -1, -1, 27, -1, -1, 30, -1, -1, 33, -1, 35, -1, -1, 46, 41, 40, -1, -1, 45, 44, -1, -1, -1, 52, 51, 50, -1, -1, -1, 54, -1, -1, -1, 62, 59, -1, 61, -1, -1, 66, 65, -1, -1, 92, 79, 74, 73, 72, -1, -1, -1, 78, 77, -1, -1, -1, 87, 84, 83, -1, -1, 86, -1, -1, 89, -1, 91, -1, -1, 94, -1, 96, -1, 98, -1, 100, -1, -1], "feature": [17, 88, 3, 114, 80, 39, 100, 52, -2, -2, 6, -2, -2, 18, 98, -2, -2, 113, -2, -2, 44, 90, 21, -2, -2, 51, -2, -2, 4, -2, -2, 66, -2, 72, -2, -2, 69, 12, 85, -2, -2, 92, 52, -2, -2, -2, 14, 108, 78, -2, -2, -2, 13, -2, -2, -2, 67, 26, -2, 66, -2, -2, 118, 42, -2, -2, 28, 13, 61, 72, 10, -2, -2, -2, 31, 46, -2, -2, -2, 5, 41, 12, -2, -2, 52, -2, -2, 78, -2, 111, -2, -2, 69, -2, 69, -2, 93, -2, 7, -2, -2], "threshold": [90.09115029316915, 6423.6813457332, 0.521091832556339, 588.5242173525153, 3335.096548189454, -0.5961055004019782, 1363.9614353137842, 1689.3842208955364, -2.0, -2.0, 5.503638302210547, -2.0, -2.0, -834.9662166070036, -160.5241199473497, -2.0, -2.0, 83.73769188706656, -2.0, -2.0, 6329.323890967446, 491.6265930047382, 88.37567435315609, -2.0, -2.0, 0.7299261571513145, -2.0, -2.0, 1255.8052560248436, -2.0, -2.0, -23.454828946131666, -2.0, 703.367935673505, -2.0, -2.0, 85.4445311000778, 2080.0049517964967, 85.45794097541736, -2.0, -2.0, 2595.299466018239, 2071.7210117083605, -2.0, -2.0, -2.0, 33.61986390250729, 1292.7169982859477, -11.569999126517214, -2.0, -2.0, -2.0, 85.94855503316435, -2.0, -2.0, -2.0, -0.17539731467859698, -2.9492771075802287, -2.0, 35.610512457140956, -2.0, -2.0, -157.0303659034103, -52.811595232603885, -2.0, -2.0, 2938.9341828613237, 93.81436447650863, 93.89309877478196, 2660.511212427873, 83.67901635574134, -2.0, -2.0, -2.0, 1.7424202737130319, 154.6663084596704, -2.0, -2.0, -2.0, 94.02851588652865, 94.2831404191829, 1355.4477982639557, -2.0, -2.0, 3066.1681089788526, -2.0, -2.0, -38.650754257873984, -2.0, -0.4264162855345832, -2.0, -2.0, 88.09253947953346, -2.0, 92.46341620314094, -2.0, 95.33965659902415, -2.0, 0.19356194613201635, -2.0, -2.0], "n_node_samples": [256, 218, 217, 207, 204, 195, 11, 6, 4, 2, 5, 3, 2, 184, 2, 1, 1, 182, 3, 179, 9, 7, 5, 4, 1, 2, 1, 1, 2, 1, 1, 3, 1, 2, 1, 1, 10, 5, 2, 1, 1, 3, 2, 1, 1, 1, 5, 3, 2, 1, 1, 1, 2, 1, 1, 1, 38, 3, 1, 2, 1, 1, 35, 2, 1, 1, 33, 28, 18, 13, 12, 10, 2, 1, 5, 4, 2, 2, 1, 10, 5, 3, 1, 2, 2, 1, 1, 5, 1, 4, 2, 2, 5, 1, 4, 1, 3, 1, 2, 1, 1]}, {"n_nodes": 61, "children_left": [1, 2, 3, -1, 5, 6, 7, 8, 9, -1, -1, 12, -1, -1, 15, 16, -1, -1, 19, -1, -1, 22, 23, 24, -1, -1, -1, 28, -1, 30, -1, -1, 33, -1, -1, 36, -1, 38, 39, 40, 41, -1, -1, 44, 45, -1, -1, -1, 49, 50, -1, -1, 53, 54, -1, -1, 57, -1, -1, -1, -1], "children_right": [60, 35, 4, -1, 32, 21, 14, 11, 10, -1, -1, 13, -1, -1, 18, 17, -1, -1, 20, -1, -1, 27, 26, 25, -1, -1, -1, 29, -1, 31, -1, -1, 34, -1, -1, 37, -1, 59, 48, 43, 42, -1, -1, 47, 46, -1, -1, -1, 52, 51, -1, -1, 56, 55, -1, -1, 58, -1, -1, -1, -1], "feature": [100, 89, 14, -2, 10, 7, 96, 65, 80, -2, -2, 12, -2, -2, 112, 118, -2, -2, 28, -2, -2, 45, 46, 10, -2, -2, -2, 26, -2, 14, -2, -2, 58, -2, -2, 15, -2, 56, 61, 0, 18, -2, -2, 79, 91, -2, -2, -2, 52, 92, -2, -2, 102, 37, -2, -2, 56, -2, -2, -2, -2], "threshold": [4875.353692860507, 91.66543667468495, -2048.2388322745633, -2.0, 526.2277148092294, 0.08497670576208138, 1037.2314738320333, 88.64205244958497, 1881.7195512287876, -2.0, -2.0, 2179.758181388377, -2.0, -2.0, 1917.8351318183518, -71.26369944227099, -2.0, -2.0, 2770.3354866170957, -2.0, -2.0, 85.47885237330517, 70.3728782410607, -123.9721735757646, -2.0, -2.0, -2.0, -104.92331797719156, -2.0, -70.40463722376369, -2.0, -2.0, -149.86961104761326, -2.0, -2.0, -0.06137373347830666, -2.0, 5610.103566261988, 92.60289708366753, 963.3929180546631, -18.504229501590245, -2.0, -2.0, 0.06912668751046373, 0.8432207809962429, -2.0, -2.0, -2.0, 2242.6283378427047, 1723.106549910785, -2.0, -2.0, -24.669196597612085, 94.29288197322417, -2.0, -2.0, 2457.7779076266, -2.0, -2.0, -2.0, -2.0], "n_node_samples": [256, 255, 239, 1, 238, 236, 228, 58, 53, 51, 2, 5, 4, 1, 170, 64, 12, 52, 106, 94, 12, 8, 3, 2, 1, 1, 1, 5, 1, 4, 1, 3, 2, 1, 1, 16, 1, 15, 14, 5, 2, 1, 1, 3, 2, 1, 1, 1, 9, 2, 1, 1, 7, 3, 2, 1, 4, 3, 1, 1, 1]}, {"n_nodes": 69, "children_left": [1, 2, 3, -1, 5, 6, 7, 8, 9, -1, -1, 12, -1, -1, -1, 16, -1, 18, 19, -1, -1, 22, -1, -1, 25, 26, -1, 28, -1, -1, -1, 32, 33, 34, -1, 36, 37, 38, -1, -1, 41, -1, -1, 44, 45, -1, -1, 48, -1, -1, 51, 52, 53, 54, -1, -1, 57, -1, -1, -1, -1, 62, 63, -1, 65, -1, -1, -1, -1], "children_right": [68, 31, 4, -1, 24, 15, 14, 11, 10, -1, -1, 13, -1, -1, -1, 17, -1, 21, 20, -1, -1, 23, -1, -1, 30, 27, -1, 29, -1, -1, -1, 61, 50, 35, -1, 43, 40, 39, -1, -1, 42, -1, -1, 47, 46, -1, -1, 49, -1, -1, 60, 59, 56, 55, -1, -1, 58, -1, -1, -1, -1, 67, 64, -1, 66, -1, -1, -1, -1], "feature": [72, 50, 23, -2, 64, 22, 73, 64, 74, -2, -2, 39, -2, -2, -2, 112, -2, 62, 37, -2, -2, 90, -2, -2, 36, 53, -2, 114, -2, -2, -2, 57, 31, 51, -2, 92, 98, 100, -2, -2, 112, -2, -2, 22, 66, -2, -2, 90, -2, -2, 106, 38, 41, 85, -2, -2, 18, -2, -2, -2, -2, 30, 0, -2, 36, -2, -2, -2, -2], "threshold": [6553.732285716912, -112.00422868598446, -0.5276493618859208, -2.0, 2100.9731505508407, 103.11891977960192, 91.96473752798732, 1492.570914862012, -95.90257742670485, -2.0, -2.0, -0.7514939591062693, -2.0, -2.0, -2.0, 1394.9752319427091, -2.0, -40.39316776273455, 85.0296565690216, -2.0, -2.0, -1143.2090977310245, -2.0, -2.0, 3116.081145487298, 84.92236474851256, -2.0, -23.96485619710984, -2.0, -2.0, -2.0, 93.11867523292018, 0.18501702937531128, -1.5815957819957267, -2.0, 1781.580191124035, 459.77826043394316, 1660.277344422544, -2.0, -2.0, 1423.6593633013122, -2.0, -2.0, 160.9973461204197, -1457.561837855988, -2.0, -2.0, -51.81337830369053, -2.0, -2.0, 587.4592898732327, 28.660789198084174, 85.27682753199564, 85.86437726992386, -2.0, -2.0, -202.69886226099862, -2.0, -2.0, -2.0, -2.0, 339.13472948369326, 2391.566020230095, -2.0, 2502.857498841294, -2.0, -2.0, -2.0, -2.0], "n_node_samples": [256, 255, 34, 1, 33, 29, 22, 21, 14, 1, 13, 7, 1, 6, 1, 7, 1, 6, 2, 1, 1, 4, 1, 3, 4, 3, 1, 2, 1, 1, 1, 221, 217, 210, 1, 209, 98, 93, 83, 10, 5, 2, 3, 111, 105, 1, 104, 6, 2, 4, 7, 6, 5, 3, 2, 1, 2, 1, 1, 1, 1, 4, 3, 1, 2, 1, 1, 1, 1]}, {"n_nodes": 71, "children_left": [1, 2, 3, 4, 5, 6, -1, -1, 9, 10, 11, -1, -1, -1, 15, 16, -1, -1, 19, -1, -1, 22, -1, -1, 25, 26, -1, 28, 29, -1, -1, 32, 33, -1, -1, 36, -1, -1, 39, 40, 41, 42, -1, -1, 45, -1, -1, 48, 49, -1, -1, -1, 53, 54, 55, -1, -1, -1, 59, 60, -1, -1, -1, 64, 65, -1, -1, -1, 69, -1, -1], "children_right": [68, 63, 24, 21, 8, 7, -1, -1, 14, 13, 12, -1, -1, -1, 18, 17, -1, -1, 20, -1, -1, 23, -1, -1, 38, 27, -1, 31, 30, -1, -1, 35, 34, -1, -1, 37, -1, -1, 52, 47, 44, 43, -1, -1, 46, -1, -1, 51, 50, -1, -1, -1, 58, 57, 56, -1, -1, -1, 62, 61, -1, -1, -1, 67, 66, -1, -1, -1, 70, -1, -1], "feature": [36, 114, 36, 92, 118, 76, -2, -2, 107, 116, 50, -2, -2, -2, 61, 83, -2, -2, 68, -2, -2, 29, -2, -2, 104, 63, -2, 60, 8, -2, -2, 81, 16, -2, -2, 64, -2, -2, 65, 17, 8, 37, -2, -2, 41, -2, -2, 30, 51, -2, -2, -2, 4, 14, 110, -2, -2, -2, 57, 31, -2, -2, -2, 109, 37, -2, -2, -2, 91, -2, -2], "threshold": [4649.553604819138, 1040.292342614053, 1852.6374932199892, 4430.8151868851, -518.5928352771293, 896.3378179102847, -2.0, -2.0, -0.2552669603634937, 2224.1701101419376, -7.219494585981359, -2.0, -2.0, -2.0, 92.00840074569378, 1.7822045119396432, -2.0, -2.0, 936.267073256088, -2.0, -2.0, 86.11057277867131, -2.0, -2.0, 1543.1078272806983, -1.2582915514979005, -2.0, 1004.4217028610509, 1308.317288497145, -2.0, -2.0, 91.71377542881005, 875.1498866650043, -2.0, -2.0, 2078.9382074870814, -2.0, -2.0, 89.94621369333296, 88.58628628616513, 1340.6913190748037, 86.83259826797648, -2.0, -2.0, 85.45516557500473, -2.0, -2.0, -1.57938872677245, -1.3601889169589565, -2.0, -2.0, -2.0, 3388.1349975979583, 249.3325835249073, -367.1244529309331, -2.0, -2.0, -2.0, 94.93122134959847, 0.9139131460869281, -2.0, -2.0, -2.0, 90.57207052017193, 86.96009824609388, -2.0, -2.0, -2.0, -0.1940642759176271, -2.0, -2.0], "n_node_samples": [256, 254, 251, 115, 113, 2, 1, 1, 111, 4, 3, 1, 2, 1, 107, 104, 103, 1, 3, 1, 2, 2, 1, 1, 136, 18, 1, 17, 2, 1, 1, 15, 13, 1,